1 1 2 100 1
2 2 2 100 1
1 1 3 100 1
2 2 3 100 0.454546
3 2 3 100 0.545454
3 3 3 100 1
0 1 4 100 0.00653021
1 1 4 100 0.90313
2 1 4 100 0.0903394
0 2 4 100 0.0911164
2 2 4 100 0.636156
3 2 4 100 0.272727
2 3 4 100 0.111111
3 3 4 100 0.777778
4 3 4 100 0.111111
3 4 4 100 0.125
4 4 4 100 0.875
4 5 4 100 1
1 1 5 100 0.999966
3 1 5 100 3.39079e-05
0 2 5 100 1.03158e-05
1 2 5 100 3.39079e-05
2 2 5 100 0.833323
3 2 5 100 0.166633
3 3 5 100 0.423165
4 3 5 100 0.410168
5 3 5 100 0.166667
4 4 5 100 0.6
5 4 5 100 0.4
5 5 5 100 1
1 1 6 100 1
0 2 6 100 5.23206e-06
2 2 6 100 0.833328
3 2 6 100 0.166667
3 3 6 100 0.250025
4 3 6 100 0.749975
4 4 6 100 0.25
5 4 6 100 0.75
0 5 6 100 0.0833333
5 5 6 100 0.166667
6 5 6 100 0.75
5 6 6 100 0.333333
6 6 6 100 0.666667
6 7 6 100 1
0 1 7 100 4.62342e-05
1 1 7 100 0.999954
0 2 7 100 0.0357566
2 2 7 100 0.87027
3 2 7 100 0.066858
4 2 7 100 0.0271149
0 3 7 100 1.14516e-06
2 3 7 100 0.0357143
3 3 7 100 0.678579
4 3 7 100 0.214286
5 3 7 100 0.0714197
0 4 7 100 0.000762335
3 4 7 100 0.0357157
4 4 7 100 0.40958
5 4 7 100 0.482513
6 4 7 100 0.0714286
0 5 7 100 0.14236
4 5 7 100 0.0362118
5 5 7 100 0.392857
6 5 7 100 0.337805
7 5 7 100 0.0907668
5 6 7 100 0.0416667
6 6 7 100 0.483827
7 6 7 100 0.474507
6 7 7 100 0.0909091
7 7 7 100 0.909091
7 8 7 100 1
1 1 8 100 0.999654
2 1 8 100 0.000345985
0 2 8 100 1.36608e-05
2 2 8 100 0.813776
3 2 8 100 0.18621
3 3 8 100 0.665681
4 3 8 100 0.288867
5 3 8 100 0.045452
0 4 8 100 0.0452537
4 4 8 100 0.18203
5 4 8 100 0.771141
6 4 8 100 4.58821e-05
7 4 8 100 0.00152941
0 5 8 100 0.181233
4 5 8 100 0.000585233
5 5 8 100 0.181818
6 5 8 100 0.211929
7 5 8 100 0.376008
8 5 8 100 0.048426
6 6 8 100 0.538462
7 6 8 100 0.280364
8 6 8 100 0.181174
0 7 8 100 7.05157e-05
7 7 8 100 0.699929
8 7 8 100 0.3
8 8 8 100 1
0 1 9 100 0.000121693
1 1 9 100 0.999682
2 1 9 100 0.000193833
3 1 9 100 2.26346e-06
0 2 9 100 0.0965097
1 2 9 100 0.000910428
2 2 9 100 0.831605
3 2 9 100 0.0709394
4 2 9 100 3.56985e-05
0 3 9 100 0.00353796
1 3 9 100 0.000193833
2 3 9 100 0.0960721
3 3 9 100 0.796375
4 3 9 100 0.103255
5 3 9 100 0.000563619
8 3 9 100 2.26544e-06
0 4 9 100 0.196398
2 4 9 100 0.00257544
3 4 9 100 0.000910429
4 4 9 100 0.500092
5 4 9 100 0.200273
6 4 9 100 0.0997375
8 4 9 100 1.43536e-05
0 5 9 100 0.000121693
1 5 9 100 2.26346e-06
2 5 9 100 0.000193833
3 5 9 100 0.0996822
4 5 9 100 0.1
5 5 9 100 0.2
6 5 9 100 0.4
7 5 9 100 0.199999
0 6 9 100 2.63135e-05
5 6 9 100 0.199974
6 6 9 100 0.2
7 6 9 100 0.306462
8 6 9 100 0.291295
9 6 9 100 0.00224322
0 7 9 100 0.000770098
6 7 9 100 0.222222
7 7 9 100 0.222222
8 7 9 100 0.332563
9 7 9 100 0.222222
0 8 9 100 0.4
8 8 9 100 0.4
9 8 9 100 0.2
7 9 9 100 0.5
9 9 9 100 0.5
0 10 9 100 7.16252e-05
2 10 9 100 1.13272e-05
8 10 9 100 0.999917
9 11 9 100 1
0 1 10 100 4.02073e-05
1 1 10 100 0.927011
2 1 10 100 0.0729491
0 2 10 100 0.0624224
2 2 10 100 0.684816
3 2 10 100 0.25268
4 2 10 100 2.97536e-06
5 2 10 100 1.31454e-05
8 2 10 100 6.60168e-05
0 3 10 100 1.12399e-05
2 3 10 100 0.0624999
3 3 10 100 0.477804
4 3 10 100 0.334685
5 3 10 100 0.125
0 4 10 100 0.0625809
3 4 10 100 0.0625
4 4 10 100 0.437417
5 4 10 100 0.187502
6 4 10 100 0.187514
7 4 10 100 0.0624856
0 5 10 100 0.0618572
4 5 10 100 0.0628089
5 5 10 100 0.250309
6 5 10 100 0.250025
7 5 10 100 0.312443
8 5 10 100 0.0625565
0 6 10 100 0.00210826
4 6 10 100 3.84693e-06
5 6 10 100 0.122898
6 6 10 100 0.0624842
7 6 10 100 0.375004
8 6 10 100 0.203335
9 6 10 100 0.18539
10 6 10 100 0.048778
0 7 10 100 0.000126964
6 7 10 100 0.0833344
7 7 10 100 0.0833333
8 7 10 100 0.504063
9 7 10 100 0.189339
10 7 10 100 0.139803
0 8 10 100 0.111111
7 8 10 100 0.111111
9 8 10 100 0.666667
10 8 10 100 0.111111
8 9 10 100 0.142857
9 9 10 100 0.142857
10 9 10 100 0.714286
9 10 10 100 1
10 11 10 100 1
0 1 11 100 0.0713527
1 1 11 100 0.879004
2 1 11 100 0.0495671
3 1 11 100 7.58705e-05
1 2 11 100 0.0714286
2 2 11 100 0.136327
3 2 11 100 0.720802
4 2 11 100 0.0714419
2 3 11 100 0.0714286
3 3 11 100 0.0714296
4 3 11 100 0.357142
5 3 11 100 0.5
0 4 11 100 8.97967e-06
4 4 11 100 0.0714286
5 4 11 100 0.214286
6 4 11 100 0.642848
7 4 11 100 0.0714285
5 5 11 100 0.0714286
6 5 11 100 0.214286
7 5 11 100 0.607989
8 5 11 100 0.106244
9 5 11 100 5.35614e-05
6 6 11 100 0.0683749
7 6 11 100 0.217338
8 6 11 100 0.249215
9 6 11 100 0.408684
10 6 11 100 0.0563881
0 7 11 100 1.38374e-05
8 7 11 100 0.304908
9 7 11 100 0.170081
10 7 11 100 0.524997
9 8 11 100 0.153914
10 8 11 100 0.156665
11 8 11 100 0.689421
0 9 11 100 0.000875132
10 9 11 100 0.332465
11 9 11 100 0.66666
1 1 12 100 0.977008
2 1 12 100 0.0229918
2 2 12 100 0.333453
3 2 12 100 0.600122
4 2 12 100 0.0664251
0 3 12 100 9.59696e-05
3 3 12 100 0.25
4 3 12 100 0.430497
5 3 12 100 0.319407
0 4 12 100 5.62204e-05
4 4 12 100 0.0898331
5 4 12 100 0.410111
6 4 12 100 0.5
0 5 12 100 2.40454e-06
6 5 12 100 0.33333
7 5 12 100 0.5
8 5 12 100 0.166668
6 6 12 100 1.06896e-06
7 6 12 100 0.166667
8 6 12 100 0.499999
9 6 12 100 0.272386
10 6 12 100 0.0609476
0 7 12 100 0.00107404
8 7 12 100 0.0833333
9 7 12 100 0.330929
10 7 12 100 0.34468
11 7 12 100 0.157726
12 7 12 100 0.0822569
9 8 12 100 0.0999999
10 8 12 100 0.207492
11 8 12 100 0.432236
12 8 12 100 0.260272
11 9 12 100 0.5
12 9 12 100 0.5
12 10 12 100 1
1 1 13 100 1
2 2 13 100 0.971517
3 2 13 100 0.0284832
3 3 13 100 7.43791e-05
4 3 13 100 0.99992
5 3 13 100 5.36305e-06
0 4 13 100 2.69411e-05
5 4 13 100 0.660374
6 4 13 100 0.331391
7 4 13 100 0.00820734
6 5 13 100 0.6
7 5 13 100 0.2
8 5 13 100 0.2
7 6 13 100 0.6
8 6 13 100 0.2
10 6 13 100 0.2
0 7 13 100 0.0024994
8 7 13 100 0.599972
9 7 13 100 0.2
12 7 13 100 5.61056e-06
13 7 13 100 0.197522
9 8 13 100 0.25
10 8 13 100 0.5
11 8 13 100 0.25
11 9 13 100 0.0622932
12 9 13 100 0.711008
13 9 13 100 0.226699
13 10 13 100 1
1 1 14 100 1
0 2 14 100 0.125
2 2 14 100 0.500095
3 2 14 100 0.3749
4 2 14 100 4.6178e-06
2 3 14 100 0.125
3 3 14 100 0.5
4 3 14 100 0.12503
5 3 14 100 0.24997
3 4 14 100 0.125
4 4 14 100 0.5
5 4 14 100 0.122755
6 4 14 100 0.127245
7 4 14 100 0.125
4 5 14 100 0.00624218
5 5 14 100 0.460941
6 5 14 100 0.129415
7 5 14 100 0.273632
8 5 14 100 0.12977
0 6 14 100 4.09167e-06
6 6 14 100 0.245504
7 6 14 100 0.254491
8 6 14 100 0.125
9 6 14 100 0.375
8 7 14 100 0.375
9 7 14 100 0.25
10 7 14 100 0.236278
11 7 14 100 0.138722
9 8 14 100 0.375
10 8 14 100 0.125
11 8 14 100 0.249832
12 8 14 100 0.250168
10 9 14 100 0.375
11 9 14 100 0.125
13 9 14 100 0.427371
14 9 14 100 0.072629
11 10 14 100 0.75
13 10 14 100 0.25
13 11 14 100 0.75
14 11 14 100 0.25
14 12 14 100 1
1 1 15 100 1
2 2 15 100 0.200614
3 2 15 100 0.762084
4 2 15 100 0.0373013
0 3 15 100 3.59492e-05
4 3 15 100 0.325527
5 3 15 100 0.674437
5 4 15 100 0.25
6 4 15 100 0.5
7 4 15 100 0.25
6 5 15 100 0.245511
7 5 15 100 0.494949
8 5 15 100 0.00954015
9 5 15 100 0.25
0 6 15 100 3.59988e-05
8 6 15 100 0.25
9 6 15 100 0.5
10 6 15 100 0.249964
10 7 15 100 0.75
11 7 15 100 0.25
11 8 15 100 0.5
12 8 15 100 0.499726
13 8 15 100 0.000273718
12 9 15 100 0.249665
13 9 15 100 0.500335
14 9 15 100 0.25
14 10 15 100 1
15 11 15 100 1
1 1 16 100 0.8
3 1 16 100 0.2
2 2 16 100 0.600074
3 2 16 100 0.199921
4 2 16 100 0.200005
0 3 16 100 2.86683e-05
3 3 16 100 0.6
4 3 16 100 0.0601824
5 3 16 100 0.139789
6 3 16 100 0.2
0 4 16 100 6.09128e-05
4 4 16 100 0.041213
5 4 16 100 0.558787
6 4 16 100 0.2
7 4 16 100 0.199939
0 5 16 100 4.11918e-05
6 5 16 100 0.0243942
7 5 16 100 0.575606
8 5 16 100 0.399959
8 6 16 100 0.6
9 6 16 100 0.4
0 7 16 100 6.09129e-05
9 7 16 100 0.6
10 7 16 100 0.199367
11 7 16 100 0.200572
10 8 16 100 0.6
12 8 16 100 0.4
0 9 16 100 0.152876
11 9 16 100 0.436413
13 9 16 100 4.78754e-06
14 9 16 100 0.399995
15 9 16 100 0.00135882
16 9 16 100 0.0093522
2 10 16 100 2.06093e-06
12 10 16 100 0.6
15 10 16 100 0.399998
13 11 16 100 0.6
16 11 16 100 0.4
14 12 16 100 1
0 13 16 100 0.00226467
15 13 16 100 0.997735
1 1 17 100 1
2 2 17 100 1
0 3 17 100 0.00103569
3 3 17 100 0.998964
4 4 17 100 1
5 5 17 100 1
6 6 17 100 1
7 7 17 100 1
8 8 17 100 1
10 9 17 100 1
11 10 17 100 1
12 11 17 100 1
13 12 17 100 1
15 13 17 100 1
16 14 17 100 1
1 1 18 100 1
0 2 18 100 0.333333
2 2 18 100 0.333333
3 2 18 100 0.333333
0 3 18 100 5.32637e-05
2 3 18 100 0.333333
3 3 18 100 0.333333
4 3 18 100 0.099391
5 3 18 100 0.233889
3 4 18 100 0.333333
4 4 18 100 0.025912
5 4 18 100 0.307421
6 4 18 100 0.333333
4 5 18 100 0.333333
7 5 18 100 0.666667
6 6 18 100 0.333333
8 6 18 100 0.333333
9 6 18 100 0.333333
0 7 18 100 7.52836e-06
8 7 18 100 0.333334
9 7 18 100 0.333325
10 7 18 100 0.333333
9 8 18 100 0.333333
10 8 18 100 0.333333
11 8 18 100 0.329128
12 8 18 100 0.00420587
0 9 18 100 0.000100272
10 9 18 100 0.333304
11 9 18 100 0.000980557
12 9 18 100 0.332282
13 9 18 100 0.333333
11 10 18 100 0.333333
14 10 18 100 0.666667
13 11 18 100 0.333333
15 11 18 100 0.333333
16 11 18 100 0.333333
15 12 18 100 0.333333
16 12 18 100 0.333333
17 12 18 100 0.333333
0 13 18 100 0.00332181
17 13 18 100 0.333343
18 13 18 100 0.663335
1 1 19 100 0.982895
2 1 19 100 0.0171052
2 2 19 100 0.171826
3 2 19 100 0.661495
4 2 19 100 0.166678
0 3 19 100 6.93326e-05
4 3 19 100 0.343288
5 3 19 100 0.656643
5 4 19 100 0.333333
6 4 19 100 0.5
7 4 19 100 0.166667
6 5 19 100 0.00014782
7 5 19 100 0.823822
8 5 19 100 0.17603
8 6 19 100 6.85871e-05
9 6 19 100 0.999931
0 7 19 100 4.6134e-06
10 7 19 100 0.999995
11 8 19 100 0.613076
12 8 19 100 0.386924
12 9 19 100 0.166666
13 9 19 100 0.500001
14 9 19 100 0.333333
0 10 19 100 7.08972e-05
14 10 19 100 0.5
15 10 19 100 0.499929
15 11 19 100 0.166667
16 11 19 100 0.833123
17 11 19 100 0.000210262
16 12 19 100 0.166485
17 12 19 100 0.333515
18 12 19 100 0.5
17 13 19 100 0.0324721
18 13 19 100 0.666681
19 13 19 100 0.300847
1 1 20 100 1
2 2 20 100 0.833393
3 2 20 100 0.166602
4 2 20 100 4.31955e-06
0 3 20 100 2.60593e-05
3 3 20 100 0.202021
4 3 20 100 0.67994
5 3 20 100 0.118014
0 4 20 100 2.36417e-05
4 4 20 100 0.0124237
5 4 20 100 0.200886
6 4 20 100 0.500855
7 4 20 100 0.285811
6 5 20 100 0.0073537
7 5 20 100 0.659313
8 5 20 100 0.333333
8 6 20 100 0.666666
9 6 20 100 0.166667
10 6 20 100 0.166667
9 7 20 100 0.666667
11 7 20 100 0.333333
10 8 20 100 0.666667
12 8 20 100 0.162205
13 8 20 100 0.171129
0 9 20 100 0.00011042
11 9 20 100 0.666667
13 9 20 100 0.000850193
14 9 20 100 0.332373
12 10 20 100 0.666666
15 10 20 100 0.333334
13 11 20 100 0.666667
16 11 20 100 0.144146
17 11 20 100 0.189188
14 12 20 100 0.666667
18 12 20 100 0.33318
19 12 20 100 0.000153728
15 13 20 100 0.166667
16 13 20 100 0.5
19 13 20 100 0.166667
20 13 20 100 0.166667
16 14 20 100 0.2
17 14 20 100 0.599999
20 14 20 100 0.2
17 15 20 100 0.249999
18 15 20 100 0.750001
18 16 20 100 0.25
19 16 20 100 0.75
19 17 20 100 1
1 1 21 100 1
0 2 21 100 0.000149875
2 2 21 100 0.87485
3 2 21 100 0.125
0 3 21 100 2.10543e-05
3 3 21 100 0.757878
4 3 21 100 0.154358
5 3 21 100 0.0877427
4 4 21 100 0.125283
5 4 21 100 0.648644
6 4 21 100 0.226074
0 5 21 100 3.54688e-05
5 5 21 100 0.124965
7 5 21 100 0.875
0 6 21 100 0.000221628
6 6 21 100 0.125
8 6 21 100 0.749778
9 6 21 100 0.125
0 7 21 100 0.000149875
7 7 21 100 0.125
9 7 21 100 0.74985
10 7 21 100 0.125
8 8 21 100 0.125
10 8 21 100 0.75
11 8 21 100 0.123424
12 8 21 100 0.0015757
0 9 21 100 0.000221628
9 9 21 100 0.125
11 9 21 100 0.749778
13 9 21 100 0.125
0 10 21 100 3.54688e-05
10 10 21 100 0.124965
12 10 21 100 0.75
14 10 21 100 0.125
11 11 21 100 0.125
13 11 21 100 0.125
14 11 21 100 0.625
16 11 21 100 0.125
12 12 21 100 0.125
14 12 21 100 0.125
15 12 21 100 0.0938616
16 12 21 100 0.531138
17 12 21 100 0.125
0 13 21 100 2.75111e-05
13 13 21 100 0.125
15 13 21 100 0.124973
17 13 21 100 0.625
18 13 21 100 0.124882
19 13 21 100 0.000117717
14 14 21 100 0.125
16 14 21 100 0.125
18 14 21 100 0.625
20 14 21 100 0.125
15 15 21 100 0.142857
17 15 21 100 0.142857
19 15 21 100 0.714286
16 16 21 100 0.142847
18 16 21 100 0.142857
20 16 21 100 0.714286
21 16 21 100 9.73723e-06
17 17 21 100 0.142857
19 17 21 100 0.142857
21 17 21 100 0.714286
18 18 21 100 0.5
20 18 21 100 0.5
19 19 21 100 0.0779339
20 19 21 100 0.922066
1 1 22 100 1
2 2 22 100 0.677502
3 2 22 100 0.320377
4 2 22 100 0.00212084
3 3 22 100 0.5
4 3 22 100 0.342508
5 3 22 100 0.00278408
6 3 22 100 0.154707
0 4 22 100 3.46747e-05
4 4 22 100 0.0339156
5 4 22 100 0.632751
6 4 22 100 0.166667
7 4 22 100 0.166632
6 5 22 100 0.229419
7 5 22 100 0.603915
8 5 22 100 0.166667
7 6 22 100 0.166667
8 6 22 100 0.666667
9 6 22 100 7.97126e-05
10 6 22 100 0.166581
11 6 22 100 5.74762e-06
0 7 22 100 6.18253e-06
8 7 22 100 0.166667
9 7 22 100 0.500073
10 7 22 100 0.166514
12 7 22 100 0.16674
9 8 22 100 0.166666
10 8 22 100 0.5
13 8 22 100 0.166667
14 8 22 100 0.166667
0 9 22 100 0.165727
10 9 22 100 0.166667
11 9 22 100 0.333333
14 9 22 100 0.163929
15 9 22 100 0.169404
21 9 22 100 0.000939486
11 10 22 100 0.333333
12 10 22 100 0.333333
16 10 22 100 0.166667
17 10 22 100 0.166667
12 11 22 100 0.333334
13 11 22 100 0.333333
17 11 22 100 0.166667
19 11 22 100 0.166667
0 12 22 100 4.13737e-05
13 12 22 100 0.333333
14 12 22 100 0.333333
18 12 22 100 0.166626
20 12 22 100 0.166462
21 12 22 100 0.000204551
14 13 22 100 0.333333
15 13 22 100 0.333333
19 13 22 100 0.166667
22 13 22 100 0.166667
15 14 22 100 0.4
16 14 22 100 0.2
17 14 22 100 0.2
20 14 22 100 0.199999
0 15 22 100 0.000338978
16 15 22 100 0.199936
17 15 22 100 0.399723
18 15 22 100 0.200002
21 15 22 100 0.2
0 16 22 100 0.19837
17 16 22 100 0.200575
18 16 22 100 0.200575
19 16 22 100 0.2
22 16 22 100 0.200479
0 17 22 100 0.000284318
17 17 22 100 2.74782e-06
18 17 22 100 0.499715
19 17 22 100 0.25
20 17 22 100 0.249998
19 18 22 100 0.666666
20 18 22 100 0.333334
20 19 22 100 0.666667
21 19 22 100 0.333333
0 20 22 100 0.00281844
21 20 22 100 0.997182
1 1 23 100 1
0 2 23 100 2.70308e-05
2 2 23 100 0.833306
3 2 23 100 0.166667
3 3 23 100 0.353472
4 3 23 100 0.646528
4 4 23 100 0.166719
5 4 23 100 0.263452
6 4 23 100 0.569828
0 5 23 100 2.70308e-05
5 5 23 100 0.166667
6 5 23 100 0.0433089
7 5 23 100 0.510037
8 5 23 100 0.27996
6 6 23 100 0.166667
8 6 23 100 0.5
9 6 23 100 0.333334
7 7 23 100 0.166667
9 7 23 100 0.5
10 7 23 100 0.333333
0 8 23 100 4.67895e-05
8 8 23 100 0.16662
10 8 23 100 0.499544
11 8 23 100 0.333789
9 9 23 100 0.166667
11 9 23 100 0.333333
12 9 23 100 0.5
10 10 23 100 0.166667
12 10 23 100 0.333333
13 10 23 100 0.333333
14 10 23 100 0.166667
11 11 23 100 0.166665
13 11 23 100 0.333335
14 11 23 100 0.333333
15 11 23 100 0.166667
12 12 23 100 0.166667
14 12 23 100 0.333333
15 12 23 100 0.333333
16 12 23 100 0.00708402
17 12 23 100 0.143959
18 12 23 100 0.00245927
19 12 23 100 0.0131648
13 13 23 100 0.00819753
14 13 23 100 0.158469
15 13 23 100 0.333333
16 13 23 100 0.333333
20 13 23 100 0.166667
0 14 23 100 9.03562e-05
15 14 23 100 0.166667
16 14 23 100 0.333288
17 14 23 100 0.166621
18 14 23 100 0.166667
21 14 23 100 0.166667
0 15 23 100 2.81888e-05
17 15 23 100 0.333305
18 15 23 100 0.333333
19 15 23 100 0.166667
22 15 23 100 0.166667
18 16 23 100 0.333334
19 16 23 100 0.166667
20 16 23 100 0.333333
23 16 23 100 0.166667
19 17 23 100 0.4
20 17 23 100 0.2
21 17 23 100 0.4
20 18 23 100 0.4
21 18 23 100 0.2
22 18 23 100 0.4
21 19 23 100 0.666666
22 19 23 100 0.333334
1 1 24 100 1
0 2 24 100 3.12034e-05
2 2 24 100 0.714352
3 2 24 100 0.285609
4 2 24 100 7.06578e-06
0 3 24 100 5.08077e-05
3 3 24 100 0.714286
4 3 24 100 0.0795426
5 3 24 100 0.206121
4 4 24 100 0.031386
5 4 24 100 0.540043
6 4 24 100 0.428571
0 5 24 100 4.66278e-06
5 5 24 100 2.08578e-06
6 5 24 100 0.0260483
7 5 24 100 0.973945
8 6 24 100 1
9 7 24 100 0.727404
11 7 24 100 0.272596
10 8 24 100 0.714286
12 8 24 100 0.278416
13 8 24 100 0.00729877
0 9 24 100 0.142453
11 9 24 100 0.428571
12 9 24 100 0.142857
13 9 24 100 0.00139072
14 9 24 100 0.284108
17 9 24 100 3.20246e-06
24 9 24 100 0.000616336
11 10 24 100 0.142857
12 10 24 100 0.428572
13 10 24 100 0.142857
15 10 24 100 0.285714
12 11 24 100 0.142857
13 11 24 100 0.29396
14 11 24 100 0.277469
17 11 24 100 0.285714
0 12 24 100 4.03785e-05
13 12 24 100 0.142857
14 12 24 100 0.285713
15 12 24 100 0.13827
16 12 24 100 0.147404
18 12 24 100 0.285715
0 13 24 100 0.142238
15 13 24 100 0.285714
17 13 24 100 0.14286
18 13 24 100 0.142857
19 13 24 100 0.285714
24 13 24 100 0.000616338
0 14 24 100 5.08077e-05
14 14 24 100 0.142857
16 14 24 100 0.285714
18 14 24 100 0.142857
20 14 24 100 0.428521
15 15 24 100 0.142857
18 15 24 100 0.285715
20 15 24 100 0.142857
21 15 24 100 0.428571
16 16 24 100 0.142857
19 16 24 100 0.285714
21 16 24 100 0.142857
22 16 24 100 0.278604
23 16 24 100 0.00711017
24 16 24 100 0.142857
0 17 24 100 1.34131e-05
17 17 24 100 0.199987
20 17 24 100 0.4
22 17 24 100 0.2
24 17 24 100 0.2
18 18 24 100 0.333334
21 18 24 100 0.666666
19 19 24 100 0.333333
22 19 24 100 0.666667
20 20 24 100 0.333333
23 20 24 100 0.666667
0 21 24 100 0.995656
17 21 24 100 2.24369e-05
24 21 24 100 0.0043216
21 22 24 100 1
22 23 24 100 1
23 24 24 100 1
0 25 24 100 0.0525965
24 25 24 100 0.947404
1 1 25 100 1
2 2 25 100 0.75
3 2 25 100 0.25
0 3 25 100 8.56691e-06
3 3 25 100 0.50008
4 3 25 100 0.26364
5 3 25 100 0.236271
0 4 25 100 4.42946e-05
4 4 25 100 0.0295505
5 4 25 100 0.535347
6 4 25 100 0.435058
6 5 25 100 0.111668
7 5 25 100 0.888332
8 6 25 100 0.515149
10 6 25 100 0.234851
11 6 25 100 0.25
9 7 25 100 0.5
11 7 25 100 0.241572
12 7 25 100 0.258428
10 8 25 100 0.25
12 8 25 100 0.249999
13 8 25 100 0.500001
11 9 25 100 0.25
14 9 25 100 0.75
0 10 25 100 5.733e-05
12 10 25 100 0.25
15 10 25 100 0.749936
18 10 25 100 7.0412e-06
0 11 25 100 4.42945e-05
13 11 25 100 0.25
16 11 25 100 0.749956
14 12 25 100 0.25
17 12 25 100 0.5
19 12 25 100 0.25
0 13 25 100 5.733e-05
15 13 25 100 0.25
18 13 25 100 0.250007
19 13 25 100 0.25
20 13 25 100 0.249936
16 14 25 100 0.25
20 14 25 100 0.5
21 14 25 100 0.25
17 15 25 100 0.25
21 15 25 100 0.5
22 15 25 100 0.24971
23 15 25 100 0.000290384
0 16 25 100 0.000277843
19 16 25 100 0.249645
20 16 25 100 7.68539e-05
22 16 25 100 0.465045
23 16 25 100 0.034955
24 16 25 100 0.25
0 17 25 100 0.327171
19 17 25 100 0.000864059
20 17 25 100 0.00473088
23 17 25 100 0.333334
24 17 25 100 0.333333
25 17 25 100 0.000566721
0 18 25 100 0.00847354
19 18 25 100 0.000102472
20 18 25 100 0.324655
21 18 25 100 0.000102472
24 18 25 100 0.333333
25 18 25 100 0.333333
0 19 25 100 0.981503
20 19 25 100 0.0141926
21 19 25 100 0.00259218
25 19 25 100 0.00171201
0 20 25 100 0.00111137
20 20 25 100 0.000307416
21 20 25 100 0.998581
22 21 25 100 1
23 22 25 100 1
24 23 25 100 1
1 1 26 100 1
0 2 26 100 0.000267132
2 2 26 100 0.999733
3 3 26 100 1
5 4 26 100 1
0 5 26 100 3.9918e-05
6 5 26 100 0.056093
7 5 26 100 0.943867
8 6 26 100 1
9 7 26 100 1
10 8 26 100 1
11 9 26 100 1
12 10 26 100 1
0 11 26 100 0.00949408
13 11 26 100 0.990506
14 12 26 100 1
15 13 26 100 1
17 14 26 100 1
18 15 26 100 1
20 16 26 100 1
23 17 26 100 1
24 18 26 100 0.933353
25 18 26 100 0.0666474
26 19 26 100 1
1 1 27 100 1
2 2 27 100 1
3 3 27 100 1
4 4 27 100 0.0730582
5 4 27 100 0.926942
6 5 27 100 0.0432436
7 5 27 100 0.956756
8 6 27 100 1
9 7 27 100 1
10 8 27 100 1
0 9 27 100 2.30615e-05
11 9 27 100 0.999977
12 10 27 100 1
13 11 27 100 1
14 12 27 100 1
0 13 27 100 2.31969e-05
15 13 27 100 0.999977
16 14 27 100 1
17 15 27 100 1
18 16 27 100 1
0 17 27 100 2.31005e-05
19 17 27 100 0.999977
20 18 27 100 1
21 19 27 100 1
22 20 27 100 1
0 21 27 100 0.980088
11 21 27 100 2.30857e-05
15 21 27 100 2.32212e-05
19 21 27 100 2.31249e-05
26 21 27 100 0.00447101
27 21 27 100 0.0153715
23 22 27 100 1
24 23 27 100 1
25 24 27 100 1
0 25 27 100 0.00447123
26 25 27 100 0.995529
1 1 28 100 1
2 2 28 100 1
3 3 28 100 1
4 4 28 100 0.072701
5 4 28 100 0.927299
6 5 28 100 0.0430322
7 5 28 100 0.956968
8 6 28 100 1
0 7 28 100 7.30762e-06
9 7 28 100 0.999993
10 8 28 100 1
11 9 28 100 1
12 10 28 100 1
0 11 28 100 7.3486e-06
13 11 28 100 0.999993
14 12 28 100 1
15 13 28 100 1
16 14 28 100 1
0 15 28 100 7.31942e-06
17 15 28 100 0.999993
18 16 28 100 1
19 17 28 100 1
20 18 28 100 1
0 19 28 100 0.308685
9 19 28 100 6.70515e-06
13 19 28 100 6.74613e-06
17 19 28 100 6.71695e-06
21 19 28 100 0.666666
25 19 28 100 6.77517e-06
28 19 28 100 0.0246226
21 20 28 100 0.333333
22 20 28 100 0.666667
22 21 28 100 0.333333
23 21 28 100 0.666667
0 22 28 100 4.75286e-05
23 22 28 100 0.333286
24 22 28 100 0.666667
24 23 28 100 0.333334
25 23 28 100 0.666666
0 24 28 100 7.37768e-06
25 24 28 100 0.333326
26 24 28 100 0.666667
26 25 28 100 0.333334
27 25 28 100 0.666666
27 26 28 100 1
1 1 30 100 1
2 2 30 100 1
3 3 30 100 1
4 4 30 100 0.0732085
5 4 30 100 0.926791
6 5 30 100 0.0433326
7 5 30 100 0.956667
8 6 30 100 1
9 7 30 100 1
10 8 30 100 1
0 9 30 100 1.83574e-05
11 9 30 100 0.999982
12 10 30 100 1
13 11 30 100 1
14 12 30 100 1
0 13 30 100 1.83575e-05
15 13 30 100 0.999982
16 14 30 100 1
17 15 30 100 1
18 16 30 100 1
0 17 30 100 1.85722e-05
19 17 30 100 0.999981
20 18 30 100 1
21 19 30 100 1
22 20 30 100 1
23 21 30 100 1
0 22 30 100 0.983792
11 22 30 100 1.83724e-05
15 22 30 100 1.83727e-05
19 22 30 100 1.85871e-05
24 22 30 100 5.42598e-05
29 22 30 100 0.00398787
30 22 30 100 0.0121101
0 23 30 100 0.0017389
24 23 30 100 0.998261
25 24 30 100 1
26 25 30 100 1
27 26 30 100 1
28 27 30 100 1
0 28 30 100 0.00398813
29 28 30 100 0.996012
1 1 31 100 1
2 2 31 100 1
3 3 31 100 1
4 4 31 100 0.0618802
5 4 31 100 0.93812
6 5 31 100 0.112009
7 5 31 100 0.887991
8 6 31 100 1
0 7 31 100 3.25699e-06
9 7 31 100 0.999985
28 7 31 100 1.19718e-05
10 8 31 100 1
11 9 31 100 1
12 10 31 100 1
0 11 31 100 3.29377e-06
13 11 31 100 0.999985
28 11 31 100 1.19719e-05
14 12 31 100 1
15 13 31 100 1
16 14 31 100 0.999988
26 14 31 100 1.19718e-05
17 15 31 100 0.999988
27 15 31 100 1.19719e-05
0 16 31 100 0.199988
9 16 31 100 3.03386e-06
13 16 31 100 3.07064e-06
18 16 31 100 0.799988
22 16 31 100 3.03637e-06
28 16 31 100 1.5077e-05
18 17 31 100 0.2
19 17 31 100 0.8
19 18 31 100 0.199999
20 18 31 100 0.799989
30 18 31 100 1.19776e-05
0 19 31 100 0.199419
21 19 31 100 0.799988
25 19 31 100 0.000337947
26 19 31 100 1.20846e-05
31 19 31 100 0.000243429
20 20 31 100 0.2
22 20 31 100 0.799988
27 20 31 100 1.19944e-05
21 21 31 100 0.2
23 21 31 100 0.799988
28 21 31 100 1.19779e-05
0 22 31 100 3.25954e-06
22 22 31 100 0.199997
24 22 31 100 0.799988
29 22 31 100 1.20499e-05
0 23 31 100 0.000129596
23 23 31 100 0.2
25 23 31 100 0.706235
30 23 31 100 0.0936354
24 24 31 100 0.25
26 24 31 100 0.75
26 25 31 100 0.25
27 25 31 100 0.75
27 26 31 100 0.250001
28 26 31 100 0.749999
0 27 31 100 4.0745e-06
28 27 31 100 0.249996
29 27 31 100 0.75
29 28 31 100 0.25
30 28 31 100 0.75
30 29 31 100 1
1 1 32 100 1
2 2 32 100 1
3 3 32 100 1
4 4 32 100 0.0635416
5 4 32 100 0.936458
6 5 32 100 0.160264
7 5 32 100 0.839736
8 6 32 100 1
9 7 32 100 1
10 8 32 100 1
11 9 32 100 1
12 10 32 100 1
13 11 32 100 1
14 12 32 100 1
15 13 32 100 1
16 14 32 100 1
17 15 32 100 1
18 16 32 100 1
19 17 32 100 1
0 18 32 100 0.000160696
20 18 32 100 0.999839
21 19 32 100 1
22 20 32 100 1
23 21 32 100 1
24 22 32 100 1
0 23 32 100 0.975224
20 23 32 100 1.50149e-05
26 23 32 100 0.0242271
32 23 32 100 0.000534099
25 24 32 100 1
27 25 32 100 1
28 26 32 100 1
29 27 32 100 1
30 28 32 100 1
31 29 32 100 1
