2 0.00623039 0.99377 0 0 0 0 0 0 0 0 
3 0.379037 0.620963 0 0 0 0 0 0 0 0 
4 0.822021 0.177979 0 0 0 0 0 0 0 0 
5 0.0484716 0.951528 0 0 0 0 0 0 0 0 
6 0.582737 0.417263 0 0 0 0 0 0 0 0 
7 0.00538829 0.994612 0 0 0 0 0 0 0 0 
8 0.183558 0.816442 0 0 0 0 0 0 0 0 
9 0.0170064 0.982994 0 0 0 0 0 0 0 0 
10 0.0268962 0.973104 0 0 0 0 0 0 0 0 
11 0.488389 0.511611 0 0 0 0 0 0 0 0 
12 0.458317 0.541683 0 0 0 0 0 0 0 0 
13 0.0965807 0.903419 0 0 0 0 0 0 0 0 
14 0.0715644 0.928436 0 0 0 0 0 0 0 0 
15 0.625908 0.374092 0 0 0 0 0 0 0 0 
16 0.0660282 0.933972 0 0 0 0 0 0 0 0 
17 0.297906 0.702094 0 0 0 0 0 0 0 0 
18 0.373103 0.626897 0 0 0 0 0 0 0 0 
19 1.36463e-07 0.999886 0.000113523 0 0 0 0 0 0 0 
20 0.682304 0.317696 0 0 0 0 0 0 0 0 
21 0.274852 0.725148 0 0 0 0 0 0 0 0 
22 0.345428 0.654572 0 0 0 0 0 0 0 0 
23 0.0320074 0.967993 0 0 0 0 0 0 0 0 
24 0.558314 0.441686 0 0 0 0 0 0 0 0 
25 0.00726603 0.992734 0 0 0 0 0 0 0 0 
26 0.304943 0.695057 0 0 0 0 0 0 0 0 
27 0.284742 0.715258 0 0 0 0 0 0 0 0 
28 0.264334 0.735666 0 0 0 0 0 0 0 0 
29 0.417938 0.582062 0 0 0 0 0 0 0 0 
30 0.226457 0.773543 0 0 0 0 0 0 0 0 
31 0.70583 0.29417 0 0 0 0 0 0 0 0 
32 0 1 0 0 0 0 0 0 0 0 
33 0.0763349 0.923665 0 0 0 0 0 0 0 0 
34 0.0266725 0.973328 0 0 0 0 0 0 0 0 
35 0.205961 0.794039 0 0 0 0 0 0 0 0 
36 0.0063941 0.993606 0 0 0 0 0 0 0 0 
37 0.518976 0.481024 0 0 0 0 0 0 0 0 
38 0.35777 0.64223 0 0 0 0 0 0 0 0 
39 0.0809377 0.919062 0 0 0 0 0 0 0 0 
40 0.0864482 0.913552 0 0 0 0 0 0 0 0 
41 0.0785688 0.921431 0 0 0 0 0 0 0 0 
42 0.0567868 0.943213 0 0 0 0 0 0 0 0 
43 0.0208881 0.979112 0 0 0 0 0 0 0 0 
44 1.34395e-07 0.999888 0.000111803 0 0 0 0 0 0 0 
45 1.36463e-07 0.999886 0.000113523 0 0 0 0 0 0 0 
46 0.401803 0.598197 0 0 0 0 0 0 0 0 
47 0.441348 0.558652 0 0 0 0 0 0 0 0 
48 0 0.999811 0.000189402 0 0 0 0 0 0 0 
49 0.0710304 0.92897 0 0 0 0 0 0 0 0 
50 0.424225 0.575775 0 0 0 0 0 0 0 0 
51 1.36463e-07 0.999886 0.000113523 0 0 0 0 0 0 0 
52 0.651055 0.348945 0 0 0 0 0 0 0 0 
53 1.36463e-07 0.999886 0.000113523 0 0 0 0 0 0 0 
54 0.0721231 0.927877 0 0 0 0 0 0 0 0 
55 0.295934 0.704066 0 0 0 0 0 0 0 0 
56 0.73853 0.26147 0 0 0 0 0 0 0 0 
57 0.388228 0.611772 0 0 0 0 0 0 0 0 
58 0.570036 0.429964 0 0 0 0 0 0 0 0 
59 1.34395e-07 0.999888 0.000111803 0 0 0 0 0 0 0 
60 0.635132 0.364869 0 0 0 0 0 0 0 0 
61 0 1 0 0 0 0 0 0 0 0 
62 0.262401 0.737599 0 0 0 0 0 0 0 0 
63 0.0669668 0.933033 0 0 0 0 0 0 0 0 
64 0.258426 0.741574 0 0 0 0 0 0 0 0 
65 0.191162 0.808838 0 0 0 0 0 0 0 0 
66 0.0721231 0.927877 0 0 0 0 0 0 0 0 
67 0 1 0 0 0 0 0 0 0 0 
68 0 1 0 0 0 0 0 0 0 0 
69 0.493799 0.506201 0 0 0 0 0 0 0 0 
70 0.0740898 0.92591 0 0 0 0 0 0 0 0 
71 0.250912 0.749088 0 0 0 0 0 0 0 0 
72 0.389809 0.610191 0 0 0 0 0 0 0 0 
73 0.0710304 0.92897 0 0 0 0 0 0 0 0 
74 0.258426 0.741574 0 0 0 0 0 0 0 0 
75 0.0864348 0.913565 0 0 0 0 0 0 0 0 
76 0.277559 0.722441 0 0 0 0 0 0 0 0 
77 0.395715 0.604285 0 0 0 0 0 0 0 0 
78 0.511132 0.488868 0 0 0 0 0 0 0 0 
79 0.090238 0.909762 0 0 0 0 0 0 0 0 
80 0.261184 0.738816 0 0 0 0 0 0 0 0 
81 0.23689 0.76311 0 0 0 0 0 0 0 0 
82 0.0921928 0.907807 0 0 0 0 0 0 0 0 
83 0.0158813 0.984119 0 0 0 0 0 0 0 0 
84 0.276341 0.723659 0 0 0 0 0 0 0 0 
85 0.258626 0.741374 0 0 0 0 0 0 0 0 
86 0.0763349 0.923665 0 0 0 0 0 0 0 0 
87 0.362739 0.637261 0 0 0 0 0 0 0 0 
88 0.305976 0.694024 0 0 0 0 0 0 0 0 
89 0.0910537 0.908946 0 0 0 0 0 0 0 0 
90 0.556718 0.443282 0 0 0 0 0 0 0 0 
91 0.308597 0.691403 0 0 0 0 0 0 0 0 
92 0.105579 0.894421 0 0 0 0 0 0 0 0 
93 0 1 0 0 0 0 0 0 0 0 
94 0.541007 0.458993 0 0 0 0 0 0 0 0 
95 0.278545 0.721455 0 0 0 0 0 0 0 0 
96 0.719341 0.280659 0 0 0 0 0 0 0 0 
97 1.36463e-07 0.999886 0.000113523 0 0 0 0 0 0 0 
98 0.340796 0.659204 0 0 0 0 0 0 0 0 
99 0.0158813 0.984119 0 0 0 0 0 0 0 0 
100 1.36463e-07 0.999886 0.000113523 0 0 0 0 0 0 0 
101 0.401803 0.598197 0 0 0 0 0 0 0 0 
102 0.254569 0.745431 0 0 0 0 0 0 0 0 
103 0.258426 0.741574 0 0 0 0 0 0 0 0 
104 0.0721231 0.927877 0 0 0 0 0 0 0 0 
105 0.504148 0.495852 0 0 0 0 0 0 0 0 
106 0.373103 0.626897 0 0 0 0 0 0 0 0 
107 0.0721231 0.927877 0 0 0 0 0 0 0 0 
108 0.401803 0.598197 0 0 0 0 0 0 0 0 
109 0.0450605 0.95494 0 0 0 0 0 0 0 0 
110 0.25748 0.74252 0 0 0 0 0 0 0 0 
111 0.401803 0.598197 0 0 0 0 0 0 0 0 
112 0.0875077 0.912492 0 0 0 0 0 0 0 0 
113 0.00774825 0.992252 0 0 0 0 0 0 0 0 
114 0.2159 0.7841 0 0 0 0 0 0 0 0 
115 0.0710304 0.92897 0 0 0 0 0 0 0 0 
116 0 1 0 0 0 0 0 0 0 0 
117 0.0721231 0.927877 0 0 0 0 0 0 0 0 
118 0.270276 0.729724 0 0 0 0 0 0 0 0 
119 0.411019 0.588981 0 0 0 0 0 0 0 0 
120 0.0721231 0.927877 0 0 0 0 0 0 0 0 
121 0.0763349 0.923665 0 0 0 0 0 0 0 0 
122 0.389809 0.610191 0 0 0 0 0 0 0 0 
123 0.405903 0.594097 0 0 0 0 0 0 0 0 
124 0.262401 0.737599 0 0 0 0 0 0 0 0 
125 1.21508e-07 0.999899 0.000101082 0 0 0 0 0 0 0 
126 0.0474 0.9526 0 0 0 0 0 0 0 0 
127 0.0104271 0.989573 0 0 0 0 0 0 0 0 
128 0.0158813 0.984119 0 0 0 0 0 0 0 0 
129 0.0709592 0.929041 0 0 0 0 0 0 0 0 
130 0.0158813 0.984119 0 0 0 0 0 0 0 0 
131 0.258426 0.741574 0 0 0 0 0 0 0 0 
132 0.0775093 0.922491 0 0 0 0 0 0 0 0 
133 1.16712e-07 0.999903 9.70921e-05 0 0 0 0 0 0 0 
134 0.262401 0.737599 0 0 0 0 0 0 0 0 
135 0.0156407 0.984359 0 0 0 0 0 0 0 0 
136 0.0775093 0.922491 0 0 0 0 0 0 0 0 
137 0 1 0 0 0 0 0 0 0 0 
138 1.36463e-07 0.999886 0.000113523 0 0 0 0 0 0 0 
139 1.34395e-07 0.999888 0.000111803 0 0 0 0 0 0 0 
140 0.258426 0.741574 0 0 0 0 0 0 0 0 
141 0.421706 0.578294 0 0 0 0 0 0 0 0 
142 0.438844 0.561156 0 0 0 0 0 0 0 0 
143 0.0642193 0.935781 0 0 0 0 0 0 0 0 
144 0.0593418 0.940658 0 0 0 0 0 0 0 0 
145 0 1 0 0 0 0 0 0 0 0 
146 0.553929 0.446071 0 0 0 0 0 0 0 0 
147 0.0679421 0.932058 0 0 0 0 0 0 0 0 
148 0.073016 0.926984 0 0 0 0 0 0 0 0 
149 3.42642e-07 0.999955 4.47245e-05 0 0 0 0 0 0 0 
150 0.258426 0.741574 0 0 0 0 0 0 0 0 
151 0.00715758 0.992842 0 0 0 0 0 0 0 0 
152 0.262401 0.737599 0 0 0 0 0 0 0 0 
153 0.401803 0.598197 0 0 0 0 0 0 0 0 
154 0.401803 0.598197 0 0 0 0 0 0 0 0 
155 0 1 0 0 0 0 0 0 0 0 
156 0.620338 0.379662 0 0 0 0 0 0 0 0 
157 0.264996 0.735004 0 0 0 0 0 0 0 0 
158 0.00607035 0.99393 0 0 0 0 0 0 0 0 
159 0.00675434 0.993246 0 0 0 0 0 0 0 0 
160 0.319653 0.680347 0 0 0 0 0 0 0 0 
161 0.384077 0.615923 0 0 0 0 0 0 0 0 
162 0 1 0 0 0 0 0 0 0 0 
163 0.0699702 0.93003 0 0 0 0 0 0 0 0 
164 0.0763024 0.923698 0 0 0 0 0 0 0 0 
165 1.26716e-07 0.999894 0.000105414 0 0 0 0 0 0 0 
166 0.0721231 0.927877 0 0 0 0 0 0 0 0 
167 1.30443e-07 0.999891 0.000108515 0 0 0 0 0 0 0 
168 1.34395e-07 0.999888 0.000111803 0 0 0 0 0 0 0 
169 1.23196e-07 0.999897 0.000102486 0 0 0 0 0 0 0 
170 0.546951 0.453049 0 0 0 0 0 0 0 0 
171 0.00666052 0.993339 0 0 0 0 0 0 0 0 
172 1.21508e-07 0.999899 0.000101082 0 0 0 0 0 0 0 
173 0.0775093 0.922491 0 0 0 0 0 0 0 0 
174 0.254569 0.745431 0 0 0 0 0 0 0 0 
175 0.28441 0.71559 0 0 0 0 0 0 0 0 
176 1.26716e-07 0.999894 0.000105414 0 0 0 0 0 0 0 
177 0.408955 0.591045 0 0 0 0 0 0 0 0 
178 0.0266725 0.973328 0 0 0 0 0 0 0 0 
179 0.262401 0.737599 0 0 0 0 0 0 0 0 
180 0.0775093 0.922491 0 0 0 0 0 0 0 0 
181 0.0156407 0.984359 0 0 0 0 0 0 0 0 
182 1.28552e-07 0.999893 0.000106942 0 0 0 0 0 0 0 
183 0.0156407 0.984359 0 0 0 0 0 0 0 0 
184 0.0721231 0.927877 0 0 0 0 0 0 0 0 
185 1.36463e-07 0.999886 0.000113523 0 0 0 0 0 0 0 
186 0.0782161 0.921784 0 0 0 0 0 0 0 0 
187 0.0286237 0.971376 0 0 0 0 0 0 0 0 
188 0.410837 0.589163 0 0 0 0 0 0 0 0 
189 0.389809 0.610191 0 0 0 0 0 0 0 0 
190 0.0831731 0.916827 0 0 0 0 0 0 0 0 
191 0.0156407 0.984359 0 0 0 0 0 0 0 0 
192 0.259031 0.740969 0 0 0 0 0 0 0 0 
193 0.00726603 0.992734 0 0 0 0 0 0 0 0 
194 1.34395e-07 0.999888 0.000111803 0 0 0 0 0 0 0 
195 0.262401 0.737599 0 0 0 0 0 0 0 0 
196 0.0158817 0.984118 0 0 0 0 0 0 0 0 
197 0.258426 0.741574 0 0 0 0 0 0 0 0 
198 0.0775093 0.922491 0 0 0 0 0 0 0 0 
199 0.0341714 0.965829 0 0 0 0 0 0 0 0 
200 0 0.999999 0 0 0 0 0 0 0 0 
201 0 1 0 0 0 0 0 0 0 0 
202 0.258426 0.741574 0 0 0 0 0 0 0 0 
203 0.401803 0.598197 0 0 0 0 0 0 0 0 
204 0 0.999999 0 0 0 0 0 0 0 0 
205 0 0.999999 0 0 0 0 0 0 0 0 
206 0 0.999999 0 0 0 0 0 0 0 0 
207 0.0158813 0.984119 0 0 0 0 0 0 0 0 
208 0 0.999999 0 0 0 0 0 0 0 0 
209 0 0.999999 0 0 0 0 0 0 0 0 
210 0 0.999999 0 0 0 0 0 0 0 0 
211 0 0.999999 0 0 0 0 0 0 0 0 
212 0.0710304 0.92897 0 0 0 0 0 0 0 0 
213 0 0.999999 0 0 0 0 0 0 0 0 
214 0 0.999999 0 0 0 0 0 0 0 0 
215 0 0.999999 0 0 0 0 0 0 0 0 
216 0.401803 0.598197 0 0 0 0 0 0 0 0 
217 0.0158813 0.984119 0 0 0 0 0 0 0 0 
218 0.0154072 0.984593 0 0 0 0 0 0 0 0 
219 0.0721231 0.927877 0 0 0 0 0 0 0 0 
220 0.367848 0.632152 0 0 0 0 0 0 0 0 
221 1.34395e-07 0.999888 0.000111803 0 0 0 0 0 0 0 
222 0 0.999999 0 0 0 0 0 0 0 0 
223 0.0775093 0.922491 0 0 0 0 0 0 0 0 
224 0 0.999999 0 0 0 0 0 0 0 0 
225 1.34395e-07 0.999888 0.000111803 0 0 0 0 0 0 0 
226 0.0721231 0.927877 0 0 0 0 0 0 0 0 
227 0.272226 0.727774 0 0 0 0 0 0 0 0 
228 0.401803 0.598197 0 0 0 0 0 0 0 0 
229 0 0.999999 0 0 0 0 0 0 0 0 
230 0 0.999999 0 0 0 0 0 0 0 0 
231 0.258426 0.741574 0 0 0 0 0 0 0 0 
232 0 0.999999 0 0 0 0 0 0 0 0 
233 1.36463e-07 0.999886 0.000113523 0 0 0 0 0 0 0 
234 0.0875069 0.912493 0 0 0 0 0 0 0 0 
235 1.34395e-07 0.999888 0.000111803 0 0 0 0 0 0 0 
236 0.262401 0.737599 0 0 0 0 0 0 0 0 
237 0.0274247 0.972575 0 0 0 0 0 0 0 0 
238 0.542929 0.457071 0 0 0 0 0 0 0 0 
239 0.395715 0.604285 0 0 0 0 0 0 0 0 
240 0.0785346 0.921465 0 0 0 0 0 0 0 0 
241 0.26437 0.73563 0 0 0 0 0 0 0 0 
242 0.402759 0.597241 0 0 0 0 0 0 0 0 
243 0.0158813 0.984119 0 0 0 0 0 0 0 0 
244 1.36463e-07 0.999886 0.000113523 0 0 0 0 0 0 0 
245 0.258426 0.741574 0 0 0 0 0 0 0 0 
246 0.395715 0.604285 0 0 0 0 0 0 0 0 
247 0.999999 5.66224e-07 0 0 0 0 0 0 0 0 
248 0 0.999999 0 0 0 0 0 0 0 0 
249 0.250825 0.749175 0 0 0 0 0 0 0 0 
250 0.542929 0.457071 0 0 0 0 0 0 0 0 
251 0.0721231 0.927877 0 0 0 0 0 0 0 0 
252 1.34395e-07 0.999888 0.000111803 0 0 0 0 0 0 0 
253 0.401803 0.598197 0 0 0 0 0 0 0 0 
254 0.0158813 0.984119 0 0 0 0 0 0 0 0 
255 1.36463e-07 0.999886 0.000113523 0 0 0 0 0 0 0 
256 0.00726603 0.992734 0 0 0 0 0 0 0 0 
