1 0 100 2 1
1 1 100 2 1
2 2 100 2 1
2 3 100 2 1
1 0 100 3 1
1 1 100 3 0.999975
2 1 100 3 2.54216e-05
1 2 100 3 0.0662766
2 2 100 3 0.933723
1 3 100 3 3.3689e-05
2 3 100 3 0.248352
3 3 100 3 0.751614
3 4 100 3 1
2 5 100 3 1.93109e-06
3 5 100 3 0.999998
1 0 100 4 0.967444
2 0 100 4 0.0325556
1 1 100 4 1
2 2 100 4 1
3 3 100 4 1
4 4 100 4 1
4 5 100 4 1
2 0 100 5 1
1 1 100 5 1
2 2 100 5 0.954758
3 2 100 5 0.0452421
2 3 100 5 0.227638
3 3 100 5 0.699805
4 3 100 5 0.0725569
2 4 100 5 0.0419128
3 4 100 5 0.737266
4 4 100 5 0.165616
5 4 100 5 0.0552054
3 5 100 5 0.0801021
4 5 100 5 0.79973
5 5 100 5 0.120168
4 6 100 5 0.152493
5 6 100 5 0.847507
2 7 100 5 1.82681e-06
4 7 100 5 0.00119285
5 7 100 5 0.998805
4 8 100 5 7.24523e-06
5 8 100 5 0.999993
2 0 100 6 1
1 1 100 6 1
1 2 100 6 0.0236741
2 2 100 6 0.976326
2 3 100 6 0.330161
3 3 100 6 0.669839
2 4 100 6 0.0526342
3 4 100 6 0.578935
4 4 100 6 0.368431
3 5 100 6 0.0476194
4 5 100 6 0.619044
5 5 100 6 0.333336
4 6 100 6 0.17034
5 6 100 6 0.62458
6 6 100 6 0.20508
4 7 100 6 0.055259
5 7 100 6 0.276245
6 7 100 6 0.668496
5 8 100 6 0.180924
6 8 100 6 0.819076
5 9 100 6 0.00023797
6 9 100 6 0.999762
2 10 100 6 5.05721e-06
3 10 100 6 2.27818e-05
5 10 100 6 3.56541e-06
6 10 100 6 0.999969
3 11 100 6 1
1 0 100 7 0.000320992
2 0 100 7 0.000115919
3 0 100 7 5.31122e-06
4 0 100 7 0.168445
5 0 100 7 0.825899
7 0 100 7 0.00521334
1 1 100 7 1
1 2 100 7 0.0660883
2 2 100 7 0.933912
2 3 100 7 0.266436
3 3 100 7 0.733564
2 4 100 7 7.27112e-07
3 4 100 7 0.444397
4 4 100 7 0.554864
5 4 100 7 0.00073814
3 5 100 7 0.1083
4 5 100 7 0.459704
5 5 100 7 0.377996
6 5 100 7 0.0539995
4 6 100 7 0.236516
5 6 100 7 0.238589
6 6 100 7 0.477178
7 6 100 7 0.0477177
4 7 100 7 0.0451723
5 7 100 7 0.260407
6 7 100 7 0.260408
7 7 100 7 0.434013
5 8 100 7 0.230003
6 8 100 7 0.38328
7 8 100 7 0.386717
2 9 100 7 4.115e-05
3 9 100 7 3.3335e-06
4 9 100 7 0.000116177
5 9 100 7 5.3949e-05
6 9 100 7 0.32435
7 9 100 7 0.675435
3 10 100 7 4.39646e-05
4 10 100 7 0.00048595
5 10 100 7 1.94984e-05
6 10 100 7 0.444929
7 10 100 7 0.554521
2 11 100 7 3.1436e-06
3 11 100 7 0.000140278
5 11 100 7 0.000128415
6 11 100 7 0.000109182
7 11 100 7 0.999619
3 12 100 7 0.000203245
4 12 100 7 2.67562e-06
5 12 100 7 0.000138159
6 12 100 7 0.00104233
7 12 100 7 0.998614
3 13 100 7 9.24074e-05
4 13 100 7 5.66667e-06
5 13 100 7 0.000236201
6 13 100 7 0.000739772
7 13 100 7 0.998926
2 0 100 8 0.167025
3 0 100 8 1.6773e-05
4 0 100 8 0.166991
5 0 100 8 0.665732
7 0 100 8 0.00023548
1 1 100 8 1
1 2 100 8 0.0135017
2 2 100 8 0.910629
3 2 100 8 0.0758689
2 3 100 8 0.414409
3 3 100 8 0.540545
4 3 100 8 0.0450454
2 4 100 8 0.0978234
3 4 100 8 0.15474
4 4 100 8 0.623147
5 4 100 8 0.124289
3 5 100 8 0.403445
4 5 100 8 0.365722
5 5 100 8 0.184667
6 5 100 8 0.0461667
4 6 100 8 0.380948
5 6 100 8 0.238096
6 6 100 8 0.333336
7 6 100 8 0.04762
5 7 100 8 0.385002
6 7 100 8 0.205013
7 7 100 8 0.358733
8 7 100 8 0.0512527
5 8 100 8 0.0933554
6 8 100 8 0.218914
7 8 100 8 0.24861
8 8 100 8 0.439121
6 9 100 8 0.597168
7 9 100 8 0.236331
8 9 100 8 0.166502
5 10 100 8 2.03312e-06
6 10 100 8 0.000482166
7 10 100 8 0.854085
8 10 100 8 0.145431
6 11 100 8 1.07583e-07
7 11 100 8 0.0929681
8 11 100 8 0.907032
5 12 100 8 5.02404e-05
7 12 100 8 8.70796e-05
8 12 100 8 0.999863
1 0 100 9 0.328963
2 0 100 9 0.658209
3 0 100 9 0.000405391
4 0 100 9 0.000222169
6 0 100 9 0.0107294
7 0 100 9 0.000606252
9 0 100 9 0.000864577
1 1 100 9 0.958135
2 1 100 9 0.041865
1 2 100 9 0.00725107
2 2 100 9 0.80143
3 2 100 9 0.191319
1 3 100 9 5.80916e-05
2 3 100 9 0.453046
3 3 100 9 0.437515
4 3 100 9 0.109381
2 4 100 9 0.00824434
3 4 100 9 0.436644
4 4 100 9 0.497118
5 4 100 9 0.0579936
2 5 100 9 1.12183e-05
3 5 100 9 0.271689
4 5 100 9 0.31903
5 5 100 9 0.357655
6 5 100 9 0.0516157
4 6 100 9 0.278895
5 6 100 9 0.445599
6 6 100 9 0.219927
7 6 100 9 0.0555793
4 7 100 9 0.0988542
5 7 100 9 0.305907
6 7 100 9 0.446957
7 7 100 9 0.0988543
8 7 100 9 0.0494271
2 8 100 9 5.27141e-05
5 8 100 9 0.0518105
6 8 100 9 0.299441
7 8 100 9 0.548883
8 8 100 9 0.099812
5 9 100 9 0.0537667
6 9 100 9 0.1613
7 9 100 9 0.16129
8 9 100 9 0.462343
9 9 100 9 0.1613
6 10 100 9 0.0613845
7 10 100 9 0.300227
8 10 100 9 0.270189
9 10 100 9 0.3682
3 11 100 9 2.8381e-06
5 11 100 9 3.73772e-05
6 11 100 9 3.02599e-05
7 11 100 9 0.214665
8 11 100 9 0.39873
9 11 100 9 0.386534
4 12 100 9 2.83336e-06
5 12 100 9 5.45205e-06
6 12 100 9 4.00118e-06
7 12 100 9 7.09984e-06
8 12 100 9 0.40226
9 12 100 9 0.597721
5 13 100 9 1.55195e-05
8 13 100 9 0.00117333
9 13 100 9 0.998811
4 14 100 9 1.25706e-05
5 14 100 9 1.13771e-05
6 14 100 9 4.18026e-06
7 14 100 9 0.000138495
8 14 100 9 1.36612e-05
9 14 100 9 0.99982
8 15 100 9 1
4 0 100 10 0.823585
5 0 100 10 0.176415
1 1 100 10 1
2 2 100 10 1
2 3 100 10 0.999876
3 3 100 10 0.000123972
2 4 100 10 1.23147e-05
3 4 100 10 0.999988
3 5 100 10 0.302814
4 5 100 10 0.697186
4 6 100 10 0.461411
5 6 100 10 0.538589
5 7 100 10 0.664407
6 7 100 10 0.335593
5 8 100 10 0.018723
6 8 100 10 0.981277
6 9 100 10 0.333333
7 9 100 10 0.666667
7 10 100 10 0.666667
8 10 100 10 0.333333
8 11 100 10 0.666667
9 11 100 10 0.333333
7 12 100 10 4.70979e-07
8 12 100 10 0.242113
9 12 100 10 0.504573
10 12 100 10 0.253314
9 13 100 10 0.500954
10 13 100 10 0.499046
10 14 100 10 1
6 15 100 10 1
1 0 100 11 0.000174828
2 0 100 11 0.138649
3 0 100 11 0.00512402
4 0 100 11 0.282382
5 0 100 11 0.142391
6 0 100 11 0.000223834
7 0 100 11 4.37548e-05
8 0 100 11 0.430991
10 0 100 11 2.05799e-05
1 1 100 11 0.998158
2 1 100 11 0.00151539
3 1 100 11 0.000322631
5 1 100 11 3.76748e-06
1 2 100 11 0.000482585
2 2 100 11 0.753425
3 2 100 11 0.23919
4 2 100 11 0.00641203
5 2 100 11 0.000482585
10 2 100 11 8.20579e-06
1 3 100 11 0.142716
2 3 100 11 0.285312
3 3 100 11 0.428414
4 3 100 11 0.0012993
5 3 100 11 0.142259
2 4 100 11 0.217117
3 4 100 11 0.13082
4 4 100 11 0.433949
5 4 100 11 0.2181
6 4 100 11 1.33583e-05
3 5 100 11 0.259533
4 5 100 11 3.87895e-05
5 5 100 11 0.183365
6 5 100 11 0.557063
3 6 100 11 0.199267
4 6 100 11 0.398535
5 6 100 11 0.00366302
7 6 100 11 0.398535
4 7 100 11 0.166624
5 7 100 11 0.166675
6 7 100 11 0.166675
7 7 100 11 0.166675
9 7 100 11 0.33335
3 8 100 11 4.53107e-06
4 8 100 11 2.87083e-05
5 8 100 11 0.399975
9 8 100 11 0.200008
10 8 100 11 0.399983
6 9 100 11 0.428572
7 9 100 11 0.142857
10 9 100 11 0.142857
11 9 100 11 0.285714
7 10 100 11 0.499604
8 10 100 11 0.250198
11 10 100 11 0.250198
7 11 100 11 0.333968
8 11 100 11 0.333016
9 11 100 11 0.333016
8 12 100 11 1
8 13 100 11 0.0146053
9 13 100 11 0.48666
10 13 100 11 0.498735
9 14 100 11 0.499973
10 14 100 11 0.250013
11 14 100 11 0.250013
8 15 100 11 4.70491e-07
10 15 100 11 0.663697
11 15 100 11 0.336303
11 16 100 11 1
3 0 100 12 0.0618206
6 0 100 12 0.0670348
10 0 100 12 0.871145
1 1 100 12 1
2 2 100 12 1
2 3 100 12 0.499908
3 3 100 12 0.500093
2 4 100 12 2.43921e-05
3 4 100 12 0.0196434
4 4 100 12 0.980332
3 5 100 12 0.59513
5 5 100 12 0.40487
4 6 100 12 0.503015
5 6 100 12 0.167672
6 6 100 12 0.329313
5 7 100 12 0.739703
6 7 100 12 0.260296
5 8 100 12 0.018362
7 8 100 12 0.981638
6 9 100 12 0.5
8 9 100 12 0.5
7 10 100 12 0.5
9 10 100 12 0.5
8 11 100 12 0.24682
10 11 100 12 0.75318
8 12 100 12 1
9 13 100 12 0.25
11 13 100 12 0.75
7 14 100 12 5.60959e-05
9 14 100 12 0.391641
10 14 100 12 0.00355875
11 14 100 12 1.16965e-05
12 14 100 12 0.604733
10 15 100 12 1
7 16 100 12 1.5131e-05
9 16 100 12 1.95751e-05
11 16 100 12 0.999965
11 17 100 12 0.468394
12 17 100 12 0.531606
12 18 100 12 1
9 19 100 12 1
2 0 100 13 0.560833
3 0 100 13 0.000393679
4 0 100 13 0.00011668
7 0 100 13 2.81905e-05
9 0 100 13 0.42923
13 0 100 13 0.00939924
1 1 100 13 1
1 2 100 13 0.0144141
2 2 100 13 0.84514
3 2 100 13 0.140446
2 3 100 13 0.372623
3 3 100 13 0.501901
4 3 100 13 0.125475
2 4 100 13 0.20488
3 4 100 13 0.535405
4 4 100 13 0.0574134
5 4 100 13 0.202302
3 5 100 13 0.297823
4 5 100 13 0.702177
3 6 100 13 0.304233
4 6 100 13 0.32775
5 6 100 13 0.0402668
6 6 100 13 0.32775
4 7 100 13 0.303719
5 7 100 13 0.696281
5 8 100 13 0.374986
6 8 100 13 0.500022
7 8 100 13 0.124993
6 9 100 13 0.44445
7 9 100 13 0.444439
8 9 100 13 0.111111
6 10 100 13 0.181782
7 10 100 13 0.363655
8 10 100 13 0.363657
9 10 100 13 0.0909063
6 11 100 13 4.38317e-06
7 11 100 13 0.127101
8 11 100 13 0.468078
9 11 100 13 0.277716
10 11 100 13 0.127101
7 12 100 13 0.137224
8 12 100 13 0.177088
9 12 100 13 0.274015
10 12 100 13 0.411673
8 13 100 13 0.127837
9 13 100 13 0.374147
11 13 100 13 0.498015
9 14 100 13 0.198221
10 14 100 13 0.501112
12 14 100 13 0.300667
4 15 100 13 5.4576e-06
5 15 100 13 3.18025e-06
9 15 100 13 0.0240655
10 15 100 13 0.139911
11 15 100 13 0.289245
12 15 100 13 0.139871
13 15 100 13 0.406899
4 16 100 13 9.27357e-06
6 16 100 13 1.89084e-05
7 16 100 13 8.51588e-06
8 16 100 13 1.42632e-06
9 16 100 13 0.00683176
10 16 100 13 7.18382e-06
11 16 100 13 0.589272
12 16 100 13 0.396899
13 16 100 13 0.00695176
6 17 100 13 3.51188e-07
8 17 100 13 1.08196e-05
10 17 100 13 0.160467
11 17 100 13 0.155042
12 17 100 13 0.4818
13 17 100 13 0.20268
3 18 100 13 3.95181e-05
4 18 100 13 7.94059e-07
5 18 100 13 2.40233e-06
6 18 100 13 8.32987e-06
7 18 100 13 1.05165e-05
8 18 100 13 1.01311e-06
9 18 100 13 6.63255e-06
10 18 100 13 4.97668e-06
11 18 100 13 0.00338206
12 18 100 13 0.19918
13 18 100 13 0.797363
3 19 100 13 0.00010991
5 19 100 13 7.04243e-06
11 19 100 13 0.566608
12 19 100 13 0.00178137
13 19 100 13 0.431494
12 20 100 13 0.502277
13 20 100 13 0.497723
12 21 100 13 0.214754
13 21 100 13 0.785246
13 22 100 13 1
3 0 100 14 0.894612
4 0 100 14 0.105388
1 1 100 14 1
2 2 100 14 1
2 3 100 14 0.500259
3 3 100 14 0.499741
3 4 100 14 0.564818
4 4 100 14 0.435182
3 5 100 14 0.412436
5 5 100 14 0.587564
4 6 100 14 0.562361
6 6 100 14 0.437639
4 7 100 14 0.263316
5 7 100 14 0.368342
7 7 100 14 0.368342
5 8 100 14 0.5
8 8 100 14 0.5
6 9 100 14 1
7 10 100 14 0.5
9 10 100 14 0.5
7 11 100 14 0.33474
8 11 100 14 0.33052
10 11 100 14 0.33474
8 12 100 14 0.0124487
11 12 100 14 0.987551
8 13 100 14 0.333333
9 13 100 14 0.333333
12 13 100 14 0.333333
9 14 100 14 0.5
10 14 100 14 0.5
10 15 100 14 0.5
13 15 100 14 0.5
4 16 100 14 1.35696e-05
10 16 100 14 0.0345071
11 16 100 14 0.583826
14 16 100 14 0.381653
11 17 100 14 0.319824
12 17 100 14 0.680176
12 18 100 14 0.502678
13 18 100 14 0.497322
7 19 100 14 5.70948e-05
13 19 100 14 0.99952
14 19 100 14 0.000422965
14 20 100 14 1
2 0 100 16 0.156117
3 0 100 16 0.0853615
5 0 100 16 0.0799125
7 0 100 16 0.0152156
9 0 100 16 0.302141
10 0 100 16 0.0940618
12 0 100 16 0.101823
13 0 100 16 0.0940618
14 0 100 16 0.0713057
1 1 100 16 1
2 2 100 16 1
2 3 100 16 0.569124
3 3 100 16 0.430876
2 4 100 16 6.00574e-06
3 4 100 16 0.999916
4 4 100 16 7.77075e-05
3 5 100 16 0.422592
4 5 100 16 0.577408
4 6 100 16 0.948254
5 6 100 16 0.0517461
5 7 100 16 1
6 8 100 16 1
7 9 100 16 1
6 10 100 16 0.135443
7 10 100 16 0.144048
8 10 100 16 0.720508
7 11 100 16 0.324214
8 11 100 16 0.000461674
9 11 100 16 0.675324
7 12 100 16 0.00568412
8 12 100 16 0.162175
9 12 100 16 0.166428
10 12 100 16 0.665712
8 13 100 16 0.250861
9 13 100 16 0.00119119
11 13 100 16 0.747948
8 14 100 16 0.125997
9 14 100 16 0.251288
10 14 100 16 0.125997
11 14 100 16 0.118725
12 14 100 16 0.377992
9 15 100 16 0.201303
10 15 100 16 0.402555
11 15 100 16 0.201303
12 15 100 16 0.194839
10 16 100 16 0.197059
11 16 100 16 0.197059
12 16 100 16 0.0147038
13 16 100 16 0.591178
11 17 100 16 0.341079
12 17 100 16 0.147304
14 17 100 16 0.511617
3 18 100 16 2.20744e-06
7 18 100 16 0.000213682
10 18 100 16 4.08357e-06
11 18 100 16 3.30963e-05
12 18 100 16 0.3374
13 18 100 16 0.176546
15 18 100 16 0.485801
3 19 100 16 1.7623e-06
8 19 100 16 7.13897e-05
12 19 100 16 0.22263
13 19 100 16 0.30928
14 19 100 16 0.00297786
15 19 100 16 4.10301e-06
16 19 100 16 0.465035
3 20 100 16 8.84637e-06
5 20 100 16 1.81204e-06
6 20 100 16 1.54227e-06
8 20 100 16 4.53658e-06
9 20 100 16 2.52828e-06
10 20 100 16 3.36583e-06
12 20 100 16 8.27527e-05
13 20 100 16 0.389156
14 20 100 16 0.608385
16 20 100 16 0.00235279
3 21 100 16 2.84185e-06
12 21 100 16 3.1033e-05
13 21 100 16 3.3424e-06
14 21 100 16 0.399321
15 21 100 16 0.600642
11 22 100 16 1.71886e-05
15 22 100 16 0.508327
16 22 100 16 0.491656
15 23 100 16 0.00278119
16 23 100 16 0.997219
16 24 100 16 1
11 25 100 16 0.0733964
13 25 100 16 0.926604
2 0 100 17 0.162891
3 0 100 17 0.0247005
6 0 100 17 0.240877
7 0 100 17 0.162891
9 0 100 17 0.345539
12 0 100 17 0.0383997
14 0 100 17 0.0247005
1 1 100 17 1
2 2 100 17 1
2 3 100 17 0.111075
3 3 100 17 0.888925
2 4 100 17 5.88645e-05
3 4 100 17 0.662663
4 4 100 17 0.337278
3 5 100 17 0.095194
4 5 100 17 0.904804
5 5 100 17 1.92624e-06
4 6 100 17 0.90384
5 6 100 17 0.0961603
5 7 100 17 1
6 8 100 17 1
7 9 100 17 1
8 10 100 17 1
7 11 100 17 0.119978
9 11 100 17 0.880022
8 12 100 17 0.108582
9 12 100 17 0.111427
10 12 100 17 0.779991
8 13 100 17 0.00842591
9 13 100 17 0.00160548
10 13 100 17 0.32999
11 13 100 17 0.659978
9 14 100 17 0.110554
11 14 100 17 0.667084
12 14 100 17 0.222362
10 15 100 17 0.266603
12 15 100 17 0.20019
13 15 100 17 0.533206
12 16 100 17 0.83997
14 16 100 17 0.16003
11 17 100 17 0.111111
13 17 100 17 0.666667
14 17 100 17 0.111111
15 17 100 17 0.111111
12 18 100 17 0.111111
14 18 100 17 0.666667
15 18 100 17 0.111111
16 18 100 17 0.111111
3 19 100 17 1.24359e-05
9 19 100 17 1.23391e-06
13 19 100 17 0.124858
15 19 100 17 0.625779
16 19 100 17 0.125142
17 19 100 17 0.124208
3 20 100 17 2.52799e-06
6 20 100 17 1.70576e-07
9 20 100 17 2.61728e-06
13 20 100 17 1.3008e-05
14 20 100 17 0.128028
15 20 100 17 0.128613
16 20 100 17 0.643153
17 20 100 17 0.100188
6 21 100 17 1.71092e-07
9 21 100 17 9.83749e-07
13 21 100 17 0.000135595
14 21 100 17 1.98586e-07
15 21 100 17 0.138628
16 21 100 17 0.138803
17 21 100 17 0.722432
9 22 100 17 4.44284e-06
13 22 100 17 2.65905e-05
14 22 100 17 3.10915e-06
16 22 100 17 0.494649
17 22 100 17 0.505317
16 23 100 17 0.256844
17 23 100 17 0.743156
11 24 100 17 2.83955e-06
17 24 100 17 0.999997
4 0 100 18 0.207182
8 0 100 18 0.328277
11 0 100 18 0.207182
13 0 100 18 0.257359
1 1 100 18 1
2 2 100 18 1
2 3 100 18 0.32644
3 3 100 18 0.67356
3 4 100 18 0.737275
4 4 100 18 0.262725
3 5 100 18 9.36926e-06
4 5 100 18 0.59368
5 5 100 18 0.40631
4 6 100 18 0.639615
5 6 100 18 0.103739
6 6 100 18 0.256646
5 7 100 18 0.74173
7 7 100 18 0.25827
5 8 100 18 0.194402
6 8 100 18 0.537115
8 8 100 18 0.268483
6 9 100 18 0.25
7 9 100 18 0.5
9 9 100 18 0.25
7 10 100 18 0.333333
8 10 100 18 0.333334
10 10 100 18 0.333334
6 11 100 18 0.250001
8 11 100 18 0.250001
9 11 100 18 0.250001
11 11 100 18 0.249998
7 12 100 18 0.2
8 12 100 18 0.2
9 12 100 18 0.2
10 12 100 18 0.2
12 12 100 18 0.2
8 13 100 18 0.327955
10 13 100 18 0.327955
11 13 100 18 0.327959
13 13 100 18 0.0161305
9 14 100 18 0.403974
11 14 100 18 0.201987
12 14 100 18 0.201987
13 14 100 18 0.192052
10 15 100 18 0.400018
12 15 100 18 0.200009
13 15 100 18 0.199965
14 15 100 18 0.200009
11 16 100 18 0.499978
13 16 100 18 0.250011
14 16 100 18 0.250011
12 17 100 18 0.666667
15 17 100 18 0.333333
13 18 100 18 0.25
14 18 100 18 0.25
15 18 100 18 0.25
16 18 100 18 0.249999
13 19 100 18 0.333333
15 19 100 18 0.333333
17 19 100 18 0.333333
7 20 100 18 1.47704e-06
10 20 100 18 6.20198e-07
11 20 100 18 1.53497e-06
14 20 100 18 0.429663
16 20 100 18 0.355501
18 20 100 18 0.214832
3 21 100 18 1.6476e-06
5 21 100 18 1.43219e-06
6 21 100 18 1.55995e-06
9 21 100 18 5.26918e-07
10 21 100 18 1.96059e-06
12 21 100 18 3.0833e-07
15 21 100 18 0.496117
16 21 100 18 1.44161e-05
17 21 100 18 0.503861
7 22 100 18 2.06739e-06
11 22 100 18 2.15541e-06
15 22 100 18 0.0123223
16 22 100 18 0.580738
18 22 100 18 0.406935
6 23 100 18 3.10575e-06
7 23 100 18 3.38589e-06
10 23 100 18 1.14999e-06
11 23 100 18 4.32814e-06
13 23 100 18 1.53983e-06
16 23 100 18 0.320417
17 23 100 18 0.679541
18 23 100 18 2.80973e-05
17 24 100 18 0.5
18 24 100 18 0.5
6 25 100 18 1.69156e-05
9 25 100 18 7.9335e-06
13 25 100 18 5.14476e-05
18 25 100 18 0.999924
2 0 100 19 0.0236043
5 0 100 19 0.0285999
10 0 100 19 0.0250727
11 0 100 19 0.838914
14 0 100 19 0.0479042
15 0 100 19 0.0359049
1 1 100 19 1
2 2 100 19 1
3 3 100 19 1
3 4 100 19 0.729953
4 4 100 19 0.270047
4 5 100 19 0.710995
5 5 100 19 0.289004
4 6 100 19 0.669784
5 6 100 19 0.059639
6 6 100 19 0.270577
5 7 100 19 0.792689
7 7 100 19 0.207311
5 8 100 19 0.160495
6 8 100 19 0.671604
8 8 100 19 0.167901
6 9 100 19 0.166667
7 9 100 19 0.666667
9 9 100 19 0.166667
7 10 100 19 0.166674
8 10 100 19 0.666698
10 10 100 19 0.166627
8 11 100 19 0.166667
9 11 100 19 0.666667
11 11 100 19 0.166667
9 12 100 19 0.166667
10 12 100 19 0.666667
12 12 100 19 0.166667
10 13 100 19 0.166931
11 13 100 19 0.666139
13 13 100 19 0.16693
11 14 100 19 0.166666
12 14 100 19 0.666667
14 14 100 19 0.166667
12 15 100 19 0.166667
13 15 100 19 0.666667
15 15 100 19 0.166667
13 16 100 19 0.200014
14 16 100 19 0.599986
16 16 100 19 0.2
14 17 100 19 0.333326
15 17 100 19 0.499989
17 17 100 19 0.166686
15 18 100 19 0.333333
16 18 100 19 0.5
18 18 100 19 0.166667
16 19 100 19 0.245223
17 19 100 19 0.735666
19 19 100 19 0.0191112
16 20 100 19 0.16886
17 20 100 19 0.16886
18 20 100 19 0.50658
19 20 100 19 0.1557
3 21 100 19 3.02742e-06
13 21 100 19 2.29293e-06
14 21 100 19 2.56783e-06
16 21 100 19 0.000686532
17 21 100 19 1.10918e-05
18 21 100 19 0.251573
19 21 100 19 0.747721
5 22 100 19 1.36604e-06
8 22 100 19 7.80859e-06
14 22 100 19 1.94861e-05
15 22 100 19 1.77516e-06
16 22 100 19 1.88337e-06
17 22 100 19 0.00977802
19 22 100 19 0.99019
5 23 100 19 1.01832e-06
8 23 100 19 9.37226e-06
9 23 100 19 9.6336e-06
13 23 100 19 2.8736e-05
16 23 100 19 2.20364e-06
17 23 100 19 0.999159
19 23 100 19 0.000789863
16 24 100 19 1.43735e-05
17 24 100 19 3.02291e-06
18 24 100 19 0.999983
18 25 100 19 1
17 26 100 19 3.37768e-06
19 26 100 19 0.999997
9 0 100 20 0.498566
15 0 100 20 0.000730872
16 0 100 20 0.497306
17 0 100 20 0.000570217
20 0 100 20 0.00282629
1 1 100 20 1
2 2 100 20 1
2 3 100 20 0.25
3 3 100 20 0.75
3 4 100 20 0.817929
4 4 100 20 0.182071
4 5 100 20 1
5 6 100 20 1
5 7 100 20 0.741485
6 7 100 20 0.258515
6 8 100 20 0.75
7 8 100 20 0.25
7 9 100 20 0.75
8 9 100 20 0.25
8 10 100 20 0.75
9 10 100 20 0.25
9 11 100 20 0.5
10 11 100 20 0.5
10 12 100 20 0.5
11 12 100 20 0.5
11 13 100 20 0.500001
12 13 100 20 0.499999
12 14 100 20 0.499999
13 14 100 20 0.500001
13 15 100 20 0.5
14 15 100 20 0.5
14 16 100 20 0.666738
15 16 100 20 0.333262
15 17 100 20 0.498992
16 17 100 20 0.501003
17 17 100 20 5.49085e-06
15 18 100 20 0.499785
16 18 100 20 0.000718812
17 18 100 20 0.499496
16 19 100 20 0.500001
18 19 100 20 0.499999
17 20 100 20 0.5
19 20 100 20 0.5
9 21 100 20 0.00140923
18 21 100 20 0.499999
20 21 100 20 0.498592
6 22 100 20 2.46787e-06
7 22 100 20 2.68927e-06
8 22 100 20 6.4198e-06
9 22 100 20 1.43084e-06
11 22 100 20 2.17442e-06
12 22 100 20 1.15465e-05
14 22 100 20 1.30446e-06
15 22 100 20 2.66762e-05
16 22 100 20 0.0131891
17 22 100 20 5.37281e-06
18 22 100 20 9.08954e-05
19 22 100 20 0.986553
20 22 100 20 0.00010719
9 23 100 20 7.47187e-06
20 23 100 20 0.999993
6 24 100 20 0.00162946
7 24 100 20 0.0277038
12 24 100 20 0.0742179
15 24 100 20 0.00510433
17 24 100 20 0.00443722
18 24 100 20 0.729919
20 24 100 20 0.156988
16 0 100 23 0.000558293
17 0 100 23 0.49306
18 0 100 23 0.01277
19 0 100 23 0.493054
20 0 100 23 0.000558293
1 1 100 23 1
2 2 100 23 1
3 3 100 23 1
4 4 100 23 1
4 5 100 23 1
5 6 100 23 1
5 7 100 23 1
6 8 100 23 1
7 9 100 23 1
8 10 100 23 1
9 11 100 23 1
10 12 100 23 1
11 13 100 23 1
12 14 100 23 1
13 15 100 23 1
14 16 100 23 1
15 17 100 23 1
16 18 100 23 1
16 19 100 23 0.498921
17 19 100 23 0.500926
18 19 100 23 0.000153594
16 20 100 23 0.000153485
17 20 100 23 0.00708602
18 20 100 23 0.985521
19 20 100 23 0.00708602
20 20 100 23 0.000153485
18 21 100 23 0.000153599
19 21 100 23 0.500911
20 21 100 23 0.498936
20 22 100 23 0.499985
21 22 100 23 0.500015
21 23 100 23 0.499985
22 23 100 23 0.500015
22 24 100 23 0.499985
23 24 100 23 0.500015
8 25 100 23 6.01816e-06
13 25 100 23 6.85916e-06
16 25 100 23 1.41773e-05
17 25 100 23 0.0425934
18 25 100 23 0.00035182
19 25 100 23 0.154436
20 25 100 23 0.0209564
21 25 100 23 7.0047e-05
23 25 100 23 0.781566
14 26 100 23 7.44899e-05
19 26 100 23 0.999926
15 27 100 23 6.79369e-05
20 27 100 23 0.999932
7 28 100 23 0.00847872
11 28 100 23 0.00850005
16 28 100 23 0.00859086
21 28 100 23 0.97443
22 29 100 23 1
18 30 100 23 5.93937e-05
23 30 100 23 0.999941
9 31 100 23 0.48572
13 31 100 23 0.51428
9 0 100 25 0.24742
13 0 100 25 0.24742
17 0 100 25 2.24055e-05
21 0 100 25 0.490957
25 0 100 25 0.0141809
1 1 100 25 1
2 2 100 25 1
3 3 100 25 1
4 4 100 25 1
4 5 100 25 1
5 6 100 25 1
5 7 100 25 1
6 8 100 25 1
7 9 100 25 1
8 10 100 25 1
9 11 100 25 0.749995
10 11 100 25 0.25
21 11 100 25 5.77143e-06
10 12 100 25 0.75
11 12 100 25 0.25
11 13 100 25 0.749999
12 13 100 25 0.250001
12 14 100 25 0.75
14 14 100 25 0.25
13 15 100 25 0.749994
15 15 100 25 0.25
21 15 100 25 5.80529e-06
14 16 100 25 0.75
16 16 100 25 0.25
9 17 100 25 5.60432e-06
13 17 100 25 5.58103e-06
15 17 100 25 0.749999
17 17 100 25 0.249984
21 17 100 25 5.60925e-06
16 18 100 25 0.75
18 18 100 25 0.25
17 19 100 25 0.749994
19 19 100 25 0.25
21 19 100 25 5.78123e-06
18 20 100 25 0.75
20 20 100 25 0.25
19 21 100 25 0.75
22 21 100 25 0.25
20 22 100 25 0.75
23 22 100 25 0.25
21 23 100 25 0.5
22 23 100 25 0.25
24 23 100 25 0.25
9 24 100 25 0.00108939
13 24 100 25 0.00108939
21 24 100 25 0.00109122
22 24 100 25 0.505006
23 24 100 25 0.252502
25 24 100 25 0.239222
23 25 100 25 0.666666
24 25 100 25 0.333334
21 26 100 25 0.00149034
24 26 100 25 0.666667
25 26 100 25 0.331842
9 27 100 25 7.54012e-06
13 27 100 25 8.24115e-06
17 27 100 25 1.02296e-05
21 27 100 25 0.00470609
22 27 100 25 7.24494e-07
25 27 100 25 0.995267
9 28 100 25 0.0452644
13 28 100 25 0.0521742
17 28 100 25 0.0694159
21 28 100 25 0.789742
22 28 100 25 0.000533012
25 28 100 25 0.0428705
7 0 100 26 2.36675e-05
11 0 100 26 2.38002e-05
15 0 100 26 2.37057e-05
19 0 100 26 0.999751
22 0 100 26 0.000153934
24 0 100 26 2.38945e-05
1 1 100 26 1
2 2 100 26 1
3 3 100 26 1
4 4 100 26 1
4 5 100 26 1
5 6 100 26 1
5 7 100 26 1
6 8 100 26 1
7 9 100 26 0.99998
19 9 100 26 2.01154e-05
8 10 100 26 1
9 11 100 26 1
10 12 100 26 1
11 13 100 26 0.99998
19 13 100 26 2.02384e-05
12 14 100 26 1
13 15 100 26 1
14 16 100 26 1
15 17 100 26 0.99998
19 17 100 26 2.01508e-05
16 18 100 26 1
17 19 100 26 1
18 20 100 26 1
20 21 100 26 1
21 22 100 26 1
22 23 100 26 1
23 24 100 26 1
19 25 100 26 2.03255e-05
24 25 100 26 0.99998
25 26 100 26 1
26 27 100 26 1
6 28 100 26 5.83335e-06
7 28 100 26 6.03077e-06
10 28 100 26 1.99461e-06
11 28 100 26 8.53051e-06
14 28 100 26 2.52234e-06
15 28 100 26 1.14652e-05
18 28 100 26 3.99704e-06
19 28 100 26 0.999828
23 28 100 26 1.47687e-05
24 28 100 26 0.000117292
9 0 100 28 1.85387e-05
13 0 100 28 1.85388e-05
17 0 100 28 1.87556e-05
22 0 100 28 0.993506
23 0 100 28 0.00241044
28 0 100 28 0.0040275
1 1 100 28 1
2 2 100 28 1
3 3 100 28 1
4 4 100 28 1
4 5 100 28 1
5 6 100 28 1
5 7 100 28 1
6 8 100 28 1
7 9 100 28 1
8 10 100 28 1
9 11 100 28 0.999995
22 11 100 28 4.5931e-06
10 12 100 28 1
11 13 100 28 1
12 14 100 28 1
13 15 100 28 0.999995
22 15 100 28 4.59316e-06
14 16 100 28 1
15 17 100 28 1
16 18 100 28 1
17 19 100 28 0.999995
22 19 100 28 4.64677e-06
18 20 100 28 1
19 21 100 28 1
20 22 100 28 1
21 23 100 28 1
22 24 100 28 0.75033
23 24 100 28 0.24967
23 25 100 28 0.749959
24 25 100 28 0.250041
24 26 100 28 0.75
25 26 100 28 0.25
25 27 100 28 0.75
26 27 100 28 0.25
26 28 100 28 0.749999
27 28 100 28 0.250001
22 29 100 28 0.000996967
27 29 100 28 0.75
28 29 100 28 0.249003
9 30 100 28 1.39045e-06
13 30 100 28 1.50374e-06
17 30 100 28 1.82638e-06
18 30 100 28 1.508e-06
22 30 100 28 0.00178669
23 30 100 28 2.33126e-06
25 30 100 28 4.38563e-07
28 30 100 28 0.998204
9 31 100 28 0.388699
13 31 100 28 0.411535
17 31 100 28 0.199766
7 0 100 29 5.47855e-06
11 0 100 29 5.54042e-06
16 0 100 29 0.336399
18 0 100 29 5.4061e-05
19 0 100 29 0.335441
22 0 100 29 5.48285e-06
23 0 100 29 0.328084
27 0 100 29 5.48297e-06
1 1 100 29 1
2 2 100 29 1
3 3 100 29 1
4 4 100 29 1
4 5 100 29 1
5 6 100 29 1
5 7 100 29 1
6 8 100 29 1
7 9 100 29 0.999992
16 9 100 29 7.58464e-06
8 10 100 29 1
9 11 100 29 1
10 12 100 29 1
11 13 100 29 0.999992
16 13 100 29 7.67659e-06
12 14 100 29 1
13 15 100 29 1
14 16 100 29 1
15 17 100 29 1
16 18 100 29 0.5
17 18 100 29 0.5
17 19 100 29 0.500001
18 19 100 29 0.499999
18 20 100 29 0.499955
20 20 100 29 0.500037
23 20 100 29 7.50801e-06
19 21 100 29 0.5
21 21 100 29 0.5
16 22 100 29 7.59092e-06
20 22 100 29 0.5
22 22 100 29 0.499992
21 23 100 29 0.5
23 23 100 29 0.5
22 24 100 29 0.5
24 24 100 29 0.5
19 25 100 29 0.00168689
24 25 100 29 0.998313
23 26 100 29 0.0236541
25 26 100 29 0.976346
25 27 100 29 0.5
26 27 100 29 0.5
16 28 100 29 7.59108e-06
26 28 100 29 0.5
27 28 100 29 0.499992
27 29 100 29 0.5
28 29 100 29 0.5
28 30 100 29 0.500001
29 30 100 29 0.499999
9 31 100 29 3.70701e-06
13 31 100 29 3.92477e-06
19 31 100 29 0.00832435
24 31 100 29 3.4142e-05
29 31 100 29 0.991634
9 32 100 29 0.0609084
13 32 100 29 0.0627199
17 32 100 29 0.188659
23 32 100 29 0.687713
