1 1 2 100 1
0 2 2 100 0.000362834
2 2 2 100 0.999637
1 1 3 100 1
2 2 3 100 1
3 3 3 100 1
1 1 4 100 0.942443
2 1 4 100 0.0575566
0 2 4 100 1.51885e-05
2 2 4 100 0.384026
3 2 4 100 0.615378
4 2 4 100 0.000581381
0 3 4 100 0.00030785
2 3 4 100 0.000581381
3 3 4 100 0.230769
4 3 4 100 0.768341
4 4 4 100 1
1 1 5 100 0.92617
2 1 5 100 0.0738302
0 2 5 100 2.79623e-05
2 2 5 100 0.599976
3 2 5 100 0.399997
0 3 5 100 0.00820246
3 3 5 100 0.592016
4 3 5 100 0.2
5 3 5 100 0.199781
4 4 5 100 0.75
5 4 5 100 0.25
0 5 5 100 0.00112736
5 5 5 100 0.998873
1 1 6 100 0.94893
2 1 6 100 0.0510697
0 2 6 100 2.15404e-05
2 2 6 100 0.407386
3 2 6 100 0.592593
0 3 6 100 3.85422e-05
3 3 6 100 0.259463
4 3 6 100 0.703461
6 3 6 100 0.037037
0 4 6 100 1.83478e-06
4 4 6 100 0.22222
5 4 6 100 0.703704
6 4 6 100 0.0740741
0 5 6 100 0.000586201
5 5 6 100 0.0833333
6 5 6 100 0.91608
6 6 6 100 1
1 1 7 100 0.97788
2 1 7 100 0.0221199
0 2 7 100 1.53781e-05
2 2 7 100 0.636348
3 2 7 100 0.363636
0 3 7 100 1.84064e-05
3 3 7 100 0.529772
4 3 7 100 0.379301
5 3 7 100 0.0909091
0 4 7 100 7.18429e-05
4 4 7 100 0.272868
5 4 7 100 0.499787
6 4 7 100 0.181818
7 4 7 100 0.0454545
0 5 7 100 0.000523499
4 5 7 100 2.67953e-06
5 5 7 100 0.181813
6 5 7 100 0.501665
7 5 7 100 0.315996
0 6 7 100 0.000291288
6 6 7 100 0.214286
7 6 7 100 0.785423
0 7 7 100 0.0013751
7 7 7 100 0.998625
1 1 8 100 0.881471
2 1 8 100 0.080067
3 1 8 100 0.0384615
0 2 8 100 1.4946e-05
2 2 8 100 0.423069
3 2 8 100 0.538454
4 2 8 100 8.13123e-07
5 2 8 100 0.0384607
0 3 8 100 1.57179e-05
3 3 8 100 0.375224
4 3 8 100 0.509369
5 3 8 100 0.0769286
6 3 8 100 0.0384615
8 3 8 100 4.36448e-07
0 4 8 100 0.0647119
4 4 8 100 0.230761
5 4 8 100 0.308231
6 4 8 100 0.35039
7 4 8 100 0.0450957
8 4 8 100 0.000810244
0 5 8 100 0.000196725
5 5 8 100 0.192362
6 5 8 100 0.346061
7 5 8 100 0.384615
8 5 8 100 0.0767646
0 6 8 100 0.00141987
1 6 8 100 0.04
4 6 8 100 4.5391e-07
6 6 8 100 0.113622
7 6 8 100 0.205752
8 6 8 100 0.639206
0 7 8 100 0.00178132
2 7 8 100 0.124852
7 7 8 100 0.25
8 7 8 100 0.623366
8 8 8 100 1
1 1 9 100 0.899649
2 1 9 100 0.100351
0 2 9 100 2.26004e-05
2 2 9 100 0.428565
3 2 9 100 0.571412
0 3 9 100 1.05581e-05
3 3 9 100 0.37607
4 3 9 100 0.485153
5 3 9 100 0.138766
0 4 9 100 9.53104e-05
4 4 9 100 0.0714161
5 4 9 100 0.714197
6 4 9 100 0.142859
7 4 9 100 0.0714327
0 5 9 100 9.49671e-05
5 5 9 100 0.0714326
6 5 9 100 0.286132
7 5 9 100 0.570912
9 5 9 100 0.0714286
0 6 9 100 9.24097e-05
6 6 9 100 0.0769231
7 6 9 100 0.307675
8 6 9 100 0.464355
9 6 9 100 0.150954
0 7 9 100 0.00215703
7 7 9 100 0.0909091
8 7 9 100 0.276047
9 7 9 100 0.630887
0 8 9 100 0.00120546
8 8 9 100 5.45975e-06
9 8 9 100 0.998789
1 1 10 100 1
0 2 10 100 2.68612e-05
2 2 10 100 0.333306
3 2 10 100 0.555556
5 2 10 100 0.111111
3 3 10 100 0.314246
4 3 10 100 0.343778
5 3 10 100 0.230948
6 3 10 100 0.110852
7 3 10 100 0.000176428
0 4 10 100 4.67329e-05
4 4 10 100 0.222197
5 4 10 100 0.22222
6 4 10 100 0.222196
7 4 10 100 0.333334
8 4 10 100 6.0574e-06
0 5 10 100 6.67734e-05
4 5 10 100 3.82592e-06
5 5 10 100 0.110958
6 5 10 100 0.333439
7 5 10 100 0.111111
8 5 10 100 0.444422
0 6 10 100 0.000150382
7 6 10 100 0.444403
8 6 10 100 0.111111
9 6 10 100 0.115171
10 6 10 100 0.329165
0 7 10 100 0.000250657
8 7 10 100 0.666486
9 7 10 100 0.166667
10 7 10 100 0.166597
0 8 10 100 0.0370937
8 8 10 100 0.000161436
9 8 10 100 0.565114
10 8 10 100 0.397631
10 9 10 100 1
0 1 11 100 3.08787e-05
1 1 11 100 0.345809
2 1 11 100 0.633493
3 1 11 100 0.0206251
4 1 11 100 4.26553e-05
0 2 11 100 7.6621e-06
2 2 11 100 0.069176
3 2 11 100 0.216535
4 2 11 100 0.714281
0 3 11 100 1.75103e-05
4 3 11 100 0.209012
5 3 11 100 0.703824
6 3 11 100 0.0871465
0 4 11 100 1.73723e-06
5 4 11 100 0.0714286
6 4 11 100 0.285708
7 4 11 100 0.642857
10 4 11 100 1.22087e-06
11 4 11 100 3.41847e-06
0 5 11 100 2.34942e-06
6 5 11 100 0.0714286
7 5 11 100 0.285712
9 5 11 100 0.642857
0 6 11 100 5.81205e-05
7 6 11 100 0.0714286
8 6 11 100 0.145273
9 6 11 100 0.140178
10 6 11 100 0.642971
11 6 11 100 9.09372e-05
0 7 11 100 0.0741064
8 7 11 100 0.0714286
9 7 11 100 0.0714278
10 7 11 100 0.143022
11 7 11 100 0.640015
0 8 11 100 0.00237662
6 8 11 100 3.41853e-06
8 8 11 100 2.47683e-06
9 8 11 100 0.200256
10 8 11 100 0.379163
11 8 11 100 0.418199
0 9 11 100 0.330807
10 9 11 100 0.334103
11 9 11 100 0.33509
0 10 11 100 0.0105538
6 10 11 100 2.39293e-05
9 10 11 100 0.000636573
10 10 11 100 0.0461458
11 10 11 100 0.94264
1 1 12 100 0.629266
2 1 12 100 0.120735
3 1 12 100 0.249999
0 2 12 100 1.03547e-05
2 2 12 100 0.375
3 2 12 100 0.127638
4 2 12 100 0.372351
5 2 12 100 0.125
0 3 12 100 5.6655e-06
3 3 12 100 0.375
4 3 12 100 0.105964
5 3 12 100 0.180862
6 3 12 100 0.0768766
7 3 12 100 0.25694
8 3 12 100 0.00435197
0 4 12 100 1.68239e-05
2 4 12 100 0.125
4 4 12 100 0.24999
5 4 12 100 0.125
6 4 12 100 0.125078
7 4 12 100 0.120578
8 4 12 100 0.129339
9 4 12 100 0.125
3 5 12 100 0.125
5 5 12 100 0.125
6 5 12 100 0.125
7 5 12 100 0.125
8 5 12 100 0.125
9 5 12 100 0.125
10 5 12 100 0.131205
11 5 12 100 0.118796
0 6 12 100 0.00060292
4 6 12 100 0.124472
6 6 12 100 0.124965
7 6 12 100 0.12499
8 6 12 100 0.125
9 6 12 100 0.12497
10 6 12 100 0.00618515
11 6 12 100 0.243815
12 6 12 100 0.125
0 7 12 100 1.07702e-05
7 7 12 100 0.166667
8 7 12 100 0.166667
9 7 12 100 0.00610965
10 7 12 100 0.160546
11 7 12 100 0.166667
12 7 12 100 0.333333
0 8 12 100 8.52712e-05
8 8 12 100 0.25
9 8 12 100 0.249915
11 8 12 100 0.25
12 8 12 100 0.25
9 9 12 100 0.333333
10 9 12 100 0.333333
12 9 12 100 0.333333
0 10 12 100 0.000182703
10 10 12 100 0.499845
11 10 12 100 0.499972
11 11 12 100 0.5
12 11 12 100 0.5
12 12 12 100 1
1 1 13 100 0.950118
2 1 13 100 0.0304573
3 1 13 100 0.0194243
0 2 13 100 7.99993e-05
2 2 13 100 0.499939
3 2 13 100 0.333329
4 2 13 100 0.166652
3 3 13 100 0.666667
4 3 13 100 0.166667
5 3 13 100 0.166667
0 4 13 100 1.57733e-05
4 4 13 100 0.666665
5 4 13 100 0.16665
6 4 13 100 0.166667
11 4 13 100 2.12989e-06
0 5 13 100 0.000120603
5 5 13 100 0.333334
6 5 13 100 0.499477
7 5 13 100 0.167069
0 6 13 100 0.166973
6 6 13 100 0.166667
7 6 13 100 4.50423e-05
8 6 13 100 0.622346
9 6 13 100 0.0439601
13 6 13 100 9.07438e-06
0 7 13 100 0.33323
6 7 13 100 2.66685e-06
7 7 13 100 0.166667
8 7 13 100 4.81352e-05
9 7 13 100 4.81352e-05
10 7 13 100 0.333334
11 7 13 100 0.16657
12 7 13 100 0.000100533
0 8 13 100 0.00565448
6 8 13 100 0.166667
8 8 13 100 0.16668
9 8 13 100 0.166422
11 8 13 100 0.135581
12 8 13 100 0.0256537
13 8 13 100 0.333343
0 9 13 100 6.18772e-06
7 9 13 100 0.250001
9 9 13 100 0.249992
10 9 13 100 0.250001
13 9 13 100 0.250001
8 10 13 100 0.333333
10 10 13 100 0.333333
12 10 13 100 0.333333
0 11 13 100 0.0537573
8 11 13 100 1.81493e-05
9 11 13 100 0.280426
12 11 13 100 0.333334
13 11 13 100 0.332465
0 12 13 100 0.982362
11 12 13 100 0.0176378
0 13 13 100 0.5
9 13 13 100 0.5
10 14 13 100 1
0 15 13 100 0.025681
11 15 13 100 0.474319
12 15 13 100 0.5
0 16 13 100 0.812918
11 16 13 100 1.11902e-05
13 16 13 100 0.187071
0 17 13 100 0.909708
11 17 13 100 0.090292
0 18 13 100 0.5
12 18 13 100 0.5
0 19 13 100 0.000305451
10 19 13 100 0.499998
13 19 13 100 0.499696
12 20 13 100 1
0 21 13 100 0.43365
13 21 13 100 0.56635
0 1 14 100 3.7288e-06
1 1 14 100 0.830622
2 1 14 100 0.169374
0 2 14 100 1.49728e-05
2 2 14 100 0.374985
3 2 14 100 0.624994
9 2 14 100 5.68491e-06
0 3 14 100 1.61946e-05
2 3 14 100 1.40203e-06
3 3 14 100 0.332105
4 3 14 100 0.664922
5 3 14 100 0.00295454
0 4 14 100 3.29181e-05
4 4 14 100 0.125
5 4 14 100 0.749967
6 4 14 100 0.125
0 5 14 100 5.04659e-05
1 5 14 100 6.517e-05
5 5 14 100 0.125
6 5 14 100 0.749884
7 5 14 100 0.125
0 6 14 100 0.124867
5 6 14 100 8.82879e-05
7 6 14 100 0.624933
8 6 14 100 0.250034
11 6 14 100 7.79506e-05
0 7 14 100 0.126408
9 7 14 100 0.75
10 7 14 100 0.123592
0 8 14 100 0.125106
3 8 14 100 7.81684e-05
9 8 14 100 0.124846
10 8 14 100 0.499967
11 8 14 100 0.250003
0 9 14 100 0.000106687
6 9 14 100 0.125
11 9 14 100 0.374893
12 9 14 100 0.25
13 9 14 100 0.25
0 10 14 100 0.00131231
7 10 14 100 0.124996
12 10 14 100 0.249978
13 10 14 100 0.125005
14 10 14 100 0.498708
0 11 14 100 0.000514181
8 11 14 100 0.25
13 11 14 100 0.25
14 11 14 100 0.499486
9 12 14 100 0.496561
13 12 14 100 0.00343946
14 12 14 100 0.5
0 13 14 100 0.999934
10 13 14 100 2.44836e-05
11 13 14 100 4.16994e-05
13 14 14 100 1
10 15 14 100 0.996583
14 15 14 100 0.00341717
12 16 14 100 1
9 17 14 100 0.00687879
13 17 14 100 0.993121
0 18 14 100 0.999205
11 18 14 100 4.16994e-05
14 18 14 100 0.000753482
13 19 14 100 1
10 20 14 100 0.00341718
14 20 14 100 0.996583
1 1 15 100 0.518229
2 1 15 100 0.481771
0 2 15 100 1.99256e-05
3 2 15 100 0.5
4 2 15 100 0.49998
4 3 15 100 0.5
5 3 15 100 0.45138
6 3 15 100 0.0486198
0 4 15 100 4.32444e-05
5 4 15 100 0.499956
7 4 15 100 0.500001
0 5 15 100 5.8685e-05
6 5 15 100 0.499941
9 5 15 100 0.111672
10 5 15 100 0.388328
0 6 15 100 0.159075
7 6 15 100 0.32854
10 6 15 100 0.0123855
11 6 15 100 0.5
8 7 15 100 0.5
12 7 15 100 0.0244348
13 7 15 100 0.475565
0 8 15 100 4.32445e-05
10 8 15 100 0.163615
12 8 15 100 0.336343
14 8 15 100 0.499999
13 9 15 100 0.5
15 9 15 100 0.5
14 10 15 100 1
0 11 15 100 0.0022767
10 11 15 100 5.14118e-05
15 11 15 100 0.997672
0 1 16 100 1.16575e-05
1 1 16 100 0.667705
2 1 16 100 0.193861
3 1 16 100 0.138357
4 1 16 100 6.47103e-05
0 2 16 100 1.21033e-05
2 2 16 100 0.593659
3 2 16 100 0.00632923
4 2 16 100 0.4
3 3 16 100 0.4
5 3 16 100 0.339378
6 3 16 100 0.242617
7 3 16 100 0.0180041
0 4 16 100 4.54573e-05
4 4 16 100 0.2
5 4 16 100 0.199946
6 4 16 100 4.06818e-06
7 4 16 100 0.400004
8 4 16 100 0.2
0 5 16 100 0.199959
5 5 16 100 4.4259e-06
6 5 16 100 4.06818e-06
7 5 16 100 0.199946
9 5 16 100 0.400075
10 5 16 100 0.195732
11 5 16 100 0.00418565
13 5 16 100 9.45165e-05
0 6 16 100 7.99894e-05
5 6 16 100 0.199933
8 6 16 100 0.00705274
9 6 16 100 0.192933
10 6 16 100 0.2
11 6 16 100 0.2
12 6 16 100 0.2
0 7 16 100 1.82594e-05
6 7 16 100 0.199982
10 7 16 100 0.2
11 7 16 100 0.2
12 7 16 100 0.2
13 7 16 100 0.2
0 8 16 100 4.54573e-05
7 8 16 100 0.2
12 8 16 100 0.399946
13 8 16 100 0.200004
14 8 16 100 0.200004
0 9 16 100 0.000235079
8 9 16 100 0.199914
12 9 16 100 4.4259e-06
13 9 16 100 4.06819e-06
14 9 16 100 0.399673
15 9 16 100 0.400169
0 10 16 100 0.200229
13 10 16 100 0.000114644
15 10 16 100 0.00705275
16 10 16 100 0.792603
0 11 16 100 0.000332513
9 11 16 100 0.999667
0 12 16 100 0.000103722
10 12 16 100 0.999896
11 13 16 100 1
0 14 16 100 4.33764e-05
12 14 16 100 0.999957
14 15 16 100 1
0 16 16 100 0.998115
4 16 16 100 1.21466e-05
15 16 16 100 0.00187237
0 17 16 100 0.99986
6 17 16 100 4.8476e-05
10 17 16 100 6.09377e-05
13 17 16 100 3.08776e-05
15 18 16 100 1
16 19 16 100 1
0 1 17 100 2.79245e-05
1 1 17 100 0.400033
2 1 17 100 0.393736
3 1 17 100 0.199888
4 1 17 100 0.00631565
0 2 17 100 1.1575e-05
2 2 17 100 0.2
3 2 17 100 0.205617
4 2 17 100 0.394371
5 2 17 100 0.2
3 3 17 100 0.2
4 3 17 100 0.2
5 3 17 100 0.348604
6 3 17 100 0.0513958
8 3 17 100 0.2
4 4 17 100 0.2
5 4 17 100 0.2
7 4 17 100 0.4
9 4 17 100 0.2
0 5 17 100 0.19999
6 5 17 100 0.2
9 5 17 100 0.4
10 5 17 100 0.172834
11 5 17 100 0.0271661
13 5 17 100 9.60999e-06
0 6 17 100 0.000185059
5 6 17 100 0.199814
7 6 17 100 0.2
10 6 17 100 0.4
12 6 17 100 0.2
0 7 17 100 6.74547e-05
6 7 17 100 0.199976
8 7 17 100 0.2
11 7 17 100 0.2
12 7 17 100 0.177397
13 7 17 100 0.222559
7 8 17 100 0.2
9 8 17 100 0.2
12 8 17 100 0.2
14 8 17 100 0.4
0 9 17 100 0.000369517
8 9 17 100 0.199759
10 9 17 100 0.199913
13 9 17 100 0.2
15 9 17 100 0.399956
17 9 17 100 2.03194e-06
0 10 17 100 0.199988
11 10 17 100 0.2
13 10 17 100 1.20775e-05
14 10 17 100 0.2
16 10 17 100 0.4
0 11 17 100 0.000542549
9 11 17 100 0.199815
12 11 17 100 0.2
15 11 17 100 0.199985
17 11 17 100 0.399657
0 12 17 100 0.00697218
10 12 17 100 0.333294
13 12 17 100 0.326401
16 12 17 100 0.333333
0 13 17 100 0.000115225
11 13 17 100 0.333333
14 13 17 100 0.333218
17 13 17 100 0.333333
0 14 17 100 0.000277168
12 14 17 100 0.499939
15 14 17 100 0.499783
0 15 17 100 0.00286688
13 15 17 100 0.497133
16 15 17 100 0.5
0 16 17 100 0.00657332
14 16 17 100 0.499953
17 16 17 100 0.493474
0 17 17 100 0.000117721
15 17 17 100 0.999882
16 18 17 100 1
0 19 17 100 0.00366998
8 19 17 100 1.01603e-05
17 19 17 100 0.99632
0 1 18 100 1.20217e-05
1 1 18 100 0.574028
2 1 18 100 0.228248
3 1 18 100 0.197651
4 1 18 100 6.12473e-05
0 2 18 100 9.51712e-06
1 2 18 100 1.51857e-06
2 2 18 100 0.400004
3 2 18 100 0.0999998
4 2 18 100 0.4
5 2 18 100 0.0999852
0 3 18 100 5.78664e-06
3 3 18 100 0.4
5 3 18 100 0.470483
6 3 18 100 0.126703
7 3 18 100 0.0028082
0 4 18 100 6.91027e-06
4 4 18 100 0.3
5 4 18 100 0.1
6 4 18 100 0.100056
7 4 18 100 0.396808
8 4 18 100 0.103129
0 5 18 100 5.33375e-06
5 5 18 100 0.3
6 5 18 100 0.1
7 5 18 100 0.1
8 5 18 100 4.62977e-05
9 5 18 100 0.408819
10 5 18 100 0.0911294
0 6 18 100 0.199685
5 6 18 100 0.00031136
7 6 18 100 0.0999952
8 6 18 100 0.190698
9 6 18 100 0.00930203
10 6 18 100 0.129487
11 6 18 100 0.370513
14 6 18 100 8.63783e-06
0 7 18 100 0.000194804
6 7 18 100 0.199805
8 7 18 100 0.1
9 7 18 100 0.1
10 7 18 100 0.1
12 7 18 100 0.1
13 7 18 100 0.378285
14 7 18 100 0.0217149
0 8 18 100 3.44163e-05
7 8 18 100 0.199975
9 8 18 100 0.1
10 8 18 100 0.1
12 8 18 100 0.1
13 8 18 100 0.0994489
14 8 18 100 0.200542
15 8 18 100 0.2
0 9 18 100 0.099864
8 9 18 100 0.2
9 9 18 100 0.000145407
11 9 18 100 0.1
13 9 18 100 0.0999836
14 9 18 100 6.61668e-06
15 9 18 100 0.3
16 9 18 100 0.2
0 10 18 100 0.000454963
9 10 18 100 0.199747
10 10 18 100 0.0998388
12 10 18 100 0.0999907
15 10 18 100 0.1
16 10 18 100 0.299968
17 10 18 100 0.2
0 11 18 100 0.200009
11 11 18 100 0.0999798
14 11 18 100 0.100011
17 11 18 100 0.4
18 11 18 100 0.2
0 12 18 100 0.000638627
2 12 18 100 8.81654e-06
10 12 18 100 0.249756
12 12 18 100 0.125
15 12 18 100 0.125
18 12 18 100 0.499596
0 13 18 100 0.000114752
11 13 18 100 0.499937
13 13 18 100 0.249948
17 13 18 100 0.25
0 14 18 100 0.00243765
12 14 18 100 0.5
14 14 18 100 0.247562
18 14 18 100 0.25
0 15 18 100 0.000139423
13 15 18 100 0.666581
15 15 18 100 0.33328
0 16 18 100 0.00412988
14 16 18 100 0.662604
16 16 18 100 0.333266
0 17 18 100 6.64323e-05
15 17 18 100 0.6666
17 17 18 100 0.333333
0 18 18 100 0.00216534
16 18 18 100 0.666583
18 18 18 100 0.331251
17 19 18 100 1
0 20 18 100 0.00395307
18 20 18 100 0.996047
0 1 19 100 1.67157e-05
1 1 19 100 0.800032
2 1 19 100 0.193637
3 1 19 100 0.00631423
2 2 19 100 0.2
3 2 19 100 0.6
4 2 19 100 0.2
3 3 19 100 0.2
4 3 19 100 0.6
5 3 19 100 0.2
4 4 19 100 0.2
5 4 19 100 0.6
7 4 19 100 0.2
0 5 19 100 0.184562
5 5 19 100 0.2
6 5 19 100 0.400001
8 5 19 100 0.2
10 5 19 100 1.66736e-05
11 5 19 100 2.72345e-05
19 5 19 100 0.0153924
0 6 19 100 0.399882
5 6 19 100 0.000628918
6 6 19 100 0.200623
7 6 19 100 0.198832
9 6 19 100 0.17284
10 6 19 100 0.02716
14 6 19 100 2.56945e-05
15 6 19 100 8.62434e-06
0 7 19 100 0.000510388
6 7 19 100 0.199803
7 7 19 100 0.399686
8 7 19 100 0.2
11 7 19 100 0.2
0 8 19 100 0.000134221
7 8 19 100 0.199975
8 8 19 100 0.399975
10 8 19 100 0.199916
12 8 19 100 0.2
0 9 19 100 2.49864e-05
8 9 19 100 0.2
9 9 19 100 0.399975
13 9 19 100 0.4
0 10 19 100 0.000725862
9 10 19 100 0.199747
10 10 19 100 0.370595
11 10 19 100 0.0271274
13 10 19 100 0.0017428
14 10 19 100 0.200004
15 10 19 100 0.2
19 10 19 100 5.80791e-05
0 11 19 100 0.400339
14 11 19 100 3.14718e-05
15 11 19 100 0.399995
17 11 19 100 0.199634
0 12 19 100 0.000510388
10 12 19 100 0.199803
11 12 19 100 0.199805
16 12 19 100 0.399881
18 12 19 100 0.2
0 13 19 100 0.00222648
11 13 19 100 0.199975
12 13 19 100 0.199975
17 13 19 100 0.399944
19 13 19 100 0.19788
0 14 19 100 0.00088289
12 14 19 100 0.25
13 14 19 100 0.25
18 14 19 100 0.499117
0 15 19 100 0.000887933
13 15 19 100 0.33329
14 15 19 100 0.333291
19 15 19 100 0.332531
0 16 19 100 0.0030421
15 16 19 100 0.996958
0 17 19 100 4.97463e-05
16 17 19 100 0.99995
0 18 19 100 0.000125826
17 18 19 100 0.999874
18 19 19 100 1
0 20 19 100 0.00197344
19 20 19 100 0.998027
0 1 20 100 3.28576e-05
1 1 20 100 0.600137
2 1 20 100 0.394217
3 1 20 100 0.00561321
2 2 20 100 0.2
3 2 20 100 0.6
4 2 20 100 0.2
0 3 20 100 2.04629e-05
3 3 20 100 0.2
4 3 20 100 0.592653
5 3 20 100 0.183182
6 3 20 100 0.0241447
0 4 20 100 7.1225e-05
4 4 20 100 0.199926
5 4 20 100 0.4
6 4 20 100 0.200002
7 4 20 100 0.2
0 5 20 100 7.1225e-05
4 5 20 100 2.41043e-06
6 5 20 100 0.599872
7 5 20 100 0.200054
9 5 20 100 0.2
0 6 20 100 0.399339
6 6 20 100 0.000628917
8 6 20 100 0.2
9 6 20 100 0.2
10 6 20 100 0.2
15 6 20 100 3.2275e-05
0 7 20 100 0.000359903
7 7 20 100 0.399711
9 7 20 100 0.199929
10 7 20 100 0.2
12 7 20 100 0.177414
13 7 20 100 0.0225864
0 8 20 100 3.76856e-05
8 8 20 100 0.399962
10 8 20 100 0.2
11 8 20 100 0.2
14 8 20 100 0.2
0 9 20 100 0.000131878
9 9 20 100 0.4
11 9 20 100 0.199979
12 9 20 100 0.199931
15 9 20 100 0.199958
0 10 20 100 0.200254
10 10 20 100 0.199746
12 10 20 100 0.2
13 10 20 100 0.2
16 10 20 100 0.2
0 11 20 100 0.200039
10 11 20 100 0.2
13 11 20 100 0.199927
14 11 20 100 0.2
15 11 20 100 3.38822e-05
18 11 20 100 0.2
0 12 20 100 0.000270561
11 12 20 100 0.3998
13 12 20 100 2.41043e-06
15 12 20 100 0.399873
16 12 20 100 5.40493e-05
20 12 20 100 0.2
0 13 20 100 4.70611e-05
12 13 20 100 0.499953
17 13 20 100 0.5
0 14 20 100 8.90313e-05
13 14 20 100 0.5
18 14 20 100 0.499911
0 15 20 100 3.24336e-05
14 15 20 100 0.499968
19 15 20 100 0.5
0 16 20 100 0.00152592
15 16 20 100 0.249247
16 16 20 100 0.25
20 16 20 100 0.499227
0 17 20 100 2.44291e-05
16 17 20 100 0.499976
17 17 20 100 0.5
0 18 20 100 6.32244e-05
17 18 20 100 0.5
18 18 20 100 0.499937
0 19 20 100 0.499979
15 19 20 100 2.0409e-05
19 19 20 100 0.5
0 20 20 100 0.000230604
18 20 20 100 0.499769
20 20 20 100 0.5
0 21 20 100 6.17564e-05
19 21 20 100 0.999938
20 22 20 100 1
0 23 20 100 1
0 1 21 100 2.5926e-05
1 1 21 100 0.736835
2 1 21 100 0.253493
3 1 21 100 0.00964599
2 2 21 100 0.2
3 2 21 100 0.4
4 2 21 100 0.4
3 3 21 100 0.2
4 3 21 100 0.4
5 3 21 100 0.399636
6 3 21 100 0.000364139
0 4 21 100 2.26996e-05
4 4 21 100 0.199975
5 4 21 100 0.4
6 4 21 100 0.0122051
7 4 21 100 0.2
8 4 21 100 0.187795
21 4 21 100 2.06211e-06
0 5 21 100 3.08046e-05
5 5 21 100 0.199969
6 5 21 100 0.4
8 5 21 100 0.2
9 5 21 100 0.2
0 6 21 100 0.40001
6 6 21 100 3.992e-05
7 6 21 100 0.199935
9 6 21 100 0.2
10 6 21 100 0.182564
11 6 21 100 0.0174358
15 6 21 100 1.30118e-05
21 6 21 100 2.07227e-06
0 7 21 100 0.000280527
7 7 21 100 0.399719
8 7 21 100 0.2
11 7 21 100 0.2
12 7 21 100 0.2
0 8 21 100 6.01638e-05
8 8 21 100 0.399963
9 8 21 100 0.199975
12 8 21 100 0.2
13 8 21 100 0.2
21 8 21 100 2.06056e-06
9 9 21 100 0.4
10 9 21 100 0.2
14 9 21 100 0.2
15 9 21 100 0.2
0 10 21 100 0.397743
12 10 21 100 0.2
15 10 21 100 0.2
16 10 21 100 0.2
21 10 21 100 0.00225735
0 11 21 100 2.26996e-05
10 11 21 100 0.4
13 11 21 100 0.199975
16 11 21 100 0.2
18 11 21 100 0.2
21 11 21 100 2.3582e-06
0 12 21 100 3.61769e-05
11 12 21 100 0.399991
14 12 21 100 0.199973
17 12 21 100 0.2
20 12 21 100 0.2
0 13 21 100 0.000301766
2 13 21 100 1.12094e-05
12 13 21 100 0.399963
16 13 21 100 0.2
18 13 21 100 0.2
21 13 21 100 0.199724
0 14 21 100 0.00494545
13 14 21 100 0.5
17 14 21 100 0.209653
18 14 21 100 0.0338392
19 14 21 100 0.251562
0 15 21 100 0.000334338
14 15 21 100 0.5
20 15 21 100 0.499134
21 15 21 100 0.000531748
0 16 21 100 0.252233
14 16 21 100 1.16796e-05
15 16 21 100 0.497729
17 16 21 100 2.10913e-05
18 16 21 100 5.83209e-06
21 16 21 100 0.25
0 17 21 100 0.0333507
4 17 21 100 3.43686e-06
7 17 21 100 3.4538e-06
9 17 21 100 3.43428e-06
13 17 21 100 3.93035e-06
16 17 21 100 0.666617
20 17 21 100 0.000709073
21 17 21 100 0.299309
0 18 21 100 0.000495429
17 18 21 100 0.999505
0 19 21 100 0.99996
15 19 21 100 4.03544e-05
0 20 21 100 0.000701318
18 20 21 100 0.999299
0 21 21 100 9.36604e-05
19 21 21 100 0.999906
20 22 21 100 1
0 23 21 100 0.00866991
21 23 21 100 0.99133
0 1 23 100 1.69822e-05
1 1 23 100 0.840996
2 1 23 100 0.155894
3 1 23 100 0.00309326
2 2 23 100 0.250005
3 2 23 100 0.499995
4 2 23 100 0.250001
0 3 23 100 1.876e-05
3 3 23 100 0.25
4 3 23 100 0.493596
5 3 23 100 0.256385
0 4 23 100 2.76163e-05
4 4 23 100 0.0429745
5 4 23 100 0.249972
6 4 23 100 0.5
7 4 23 100 0.207025
6 5 23 100 0.25
7 5 23 100 0.499426
8 5 23 100 0.250574
0 6 23 100 0.249712
7 6 23 100 0.25
8 6 23 100 0.226998
9 6 23 100 0.0232793
10 6 23 100 0.25
18 6 23 100 1.13074e-05
0 7 23 100 0.000422626
9 7 23 100 0.499294
10 7 23 100 0.250283
11 7 23 100 0.25
0 8 23 100 7.51248e-05
10 8 23 100 0.249952
11 8 23 100 0.249972
12 8 23 100 0.5
0 9 23 100 3.74768e-05
11 9 23 100 0.25
12 9 23 100 0.0449329
13 9 23 100 0.45503
14 9 23 100 0.25
0 10 23 100 0.000162991
12 10 23 100 0.249951
14 10 23 100 0.249937
15 10 23 100 0.249949
16 10 23 100 0.25
0 11 23 100 4.19593e-05
13 11 23 100 0.25
15 11 23 100 0.25
16 11 23 100 0.25
17 11 23 100 0.249773
20 11 23 100 0.000184859
0 12 23 100 7.8563e-05
14 12 23 100 0.25
16 12 23 100 0.25
17 12 23 100 0.249948
21 12 23 100 0.249973
0 13 23 100 5.07459e-05
15 13 23 100 0.249953
18 13 23 100 0.25
19 13 23 100 0.25
22 13 23 100 0.249997
0 14 23 100 0.249973
9 14 23 100 1.72937e-05
16 14 23 100 0.250001
17 14 23 100 1.85684e-05
19 14 23 100 0.250001
20 14 23 100 0.249986
22 14 23 100 3.10482e-06
17 15 23 100 0.25
20 15 23 100 0.25
21 15 23 100 0.25
23 15 23 100 0.25
19 16 23 100 0.333334
22 16 23 100 0.333333
23 16 23 100 0.333333
0 17 23 100 0.00111316
2 17 23 100 2.03671e-05
20 17 23 100 0.500001
23 17 23 100 0.498866
0 18 23 100 0.000189866
21 18 23 100 0.99981
22 19 23 100 1
23 20 23 100 1
1 1 25 100 0.899974
3 1 25 100 0.100026
3 2 25 100 0.666667
4 2 25 100 0.333333
4 3 25 100 0.666667
5 3 25 100 0.332568
6 3 25 100 0.000765081
0 4 25 100 2.50248e-05
5 4 25 100 0.666667
6 4 25 100 0.000152334
7 4 25 100 0.333156
6 5 25 100 0.666667
8 5 25 100 0.333333
0 6 25 100 2.50248e-05
7 6 25 100 0.333333
8 6 25 100 0.333333
9 6 25 100 0.324792
10 6 25 100 0.00851672
0 7 25 100 1.3518e-05
8 7 25 100 0.33332
11 7 25 100 0.333333
14 7 25 100 0.333333
0 8 25 100 0.000754034
9 8 25 100 0.333276
12 8 25 100 0.333334
13 8 25 100 1.99584e-05
15 8 25 100 0.332616
10 9 25 100 0.333333
13 9 25 100 0.333333
16 9 25 100 0.333333
0 10 25 100 0.000145756
11 10 25 100 0.333333
14 10 25 100 0.333333
17 10 25 100 0.333188
12 11 25 100 0.333333
16 11 25 100 0.333333
20 11 25 100 0.333333
0 12 25 100 1.3518e-05
13 12 25 100 0.33332
17 12 25 100 0.333333
21 12 25 100 0.333333
0 13 25 100 5.7228e-05
14 13 25 100 0.333276
19 13 25 100 0.333333
22 13 25 100 0.333333
0 14 25 100 2.50248e-05
15 14 25 100 0.333333
21 14 25 100 0.333308
24 14 25 100 0.333333
16 15 25 100 0.333333
22 15 25 100 0.333333
25 15 25 100 0.333333
0 16 25 100 0.0041407
17 16 25 100 0.495859
24 16 25 100 0.5
0 17 25 100 6.83437e-05
18 17 25 100 0.499932
25 17 25 100 0.5
0 18 25 100 0.00176748
19 18 25 100 0.998233
0 19 25 100 0.999968
17 19 25 100 3.2181e-05
0 20 25 100 0.00125037
20 20 25 100 0.99875
0 21 25 100 0.00176748
21 21 25 100 0.998233
0 22 25 100 0.999975
17 22 25 100 2.50287e-05
0 23 25 100 0.00125037
22 23 25 100 0.99875
0 24 25 100 0.000171886
23 24 25 100 0.999828
24 25 25 100 1
0 26 25 100 0.00568523
25 26 25 100 0.994315
