2 7.11628e-07 0.999999 0 0 0 0 0 0 0 0 
3 0.111838 0.888162 0 0 0 0 0 0 0 0 
4 0.662778 0.337222 0 0 0 0 0 0 0 0 
5 0.0344453 0.953697 0 0.0118574 0 0 0 0 0 0 
6 0.340889 0.659111 0 0 0 0 0 0 0 0 
7 0.173681 0.826319 1.14241e-07 0 0 0 0 0 0 0 
8 0.210941 0.786689 0.00236932 0 0 0 0 0 0 0 
9 0.195874 0.801926 0.00220008 0 0 0 0 0 0 0 
10 0.316677 0.683323 0 0 0 0 0 0 0 0 
11 0.320224 0.679776 0 0 0 0 0 0 0 0 
12 0.335724 0.664276 0 0 0 0 0 0 0 0 
13 0.190434 0.807427 0.00213897 0 0 0 0 0 0 0 
14 0.330713 0.669287 0 0 0 0 0 0 0 0 
15 0.335724 0.664276 0 0 0 0 0 0 0 0 
16 0.190433 0.807428 0.00213897 0 0 0 0 0 0 0 
17 0.218265 0.779664 0.00207078 0 0 0 0 0 0 0 
18 0.62945 0.37055 0 0 0 0 0 0 0 0 
19 0.381433 0.618567 0 0 0 0 0 0 0 0 
20 0.103465 0.885564 0.00549167 0.00547853 0 0 0 0 0 0 
21 0.26943 0.73057 0 0 0 0 0 0 0 0 
22 8.8045e-07 0.999999 0 0 0 0 0 0 0 0 
23 0.0445835 0.939911 0 0.0155058 0 0 0 0 0 0 
24 0.215546 0.782085 0.00236932 0 0 0 0 0 0 0 
25 0.215 0.782631 0.00236932 0 0 0 0 0 0 0 
26 0.31392 0.68608 0 0 0 0 0 0 0 0 
27 0.538741 0.461259 0 0 0 0 0 0 0 0 
28 0.153179 0.845216 0.00160423 0 0 0 0 0 0 0 
29 0.00962603 0.990368 6.37996e-06 0 0 0 0 0 0 0 
30 0.129999 0.860598 0.00470715 0.00469588 0 0 0 0 0 0 
31 0.424723 0.575277 0 0 0 0 0 0 0 0 
32 0 1 0 0 0 0 0 0 0 0 
33 0.0115145 0.988478 7.63178e-06 0 0 0 0 0 0 0 
34 0.0262554 0.973737 7.51787e-06 0 0 0 0 0 0 0 
35 0.289392 0.710608 0 0 0 0 0 0 0 0 
36 0.298006 0.701994 0 0 0 0 0 0 0 0 
37 0.364766 0.633401 0.0018334 0 0 0 0 0 0 0 
38 0.105317 0.894683 0 0 0 0 0 0 0 0 
39 0.634462 0.365538 0 0 0 0 0 0 0 0 
40 0.0496015 0.9378 0 0.0125984 0 0 0 0 0 0 
41 0 1 0 0 0 0 0 0 0 0 
42 0.0410237 0.948367 0 0.0106092 0 0 0 0 0 0 
43 0.597398 0.402602 0 0 0 0 0 0 0 0 
44 0.202767 0.797233 0 0 0 0 0 0 0 0 
45 0 1 0 0 0 0 0 0 0 0 
46 0.15736 0.84264 0 0 0 0 0 0 0 0 
47 0.256712 0.743288 0 0 0 0 0 0 0 0 
48 0.287061 0.712939 0 0 0 0 0 0 0 0 
49 0.0409145 0.94489 0 0.0141954 0 0 0 0 0 0 
50 0.238255 0.761745 0 0 0 0 0 0 0 0 
51 0.0115018 0.988491 7.63178e-06 0 0 0 0 0 0 0 
52 0.0116788 0.988313 7.74919e-06 0 0 0 0 0 0 0 
53 0.198713 0.799055 0.00223197 0 0 0 0 0 0 0 
54 0.187825 0.810066 0.00210967 0 0 0 0 0 0 0 
55 0.179594 0.811003 0.00470715 0.00469588 0 0 0 0 0 0 
56 7.38707e-07 0.999999 0 0 0 0 0 0 0 0 
57 0.169274 0.828825 0.00190131 0 0 0 0 0 0 0 
58 0.280977 0.719023 0 0 0 0 0 0 0 0 
59 0.188469 0.810131 0.00140005 0 0 0 0 0 0 0 
60 0 1 0 0 0 0 0 0 0 0 
61 0.109674 0.879187 0.00557616 0.00556281 0 0 0 0 0 0 
62 0.217653 0.780237 0.00210967 0 0 0 0 0 0 0 
63 0.465533 0.532927 0.00154018 0 0 0 0 0 0 0 
64 6.94544e-07 0.999999 0 0 0 0 0 0 0 0 
65 0.0957275 0.897371 0.00345743 0.00344365 0 0 0 0 0 0 
66 0.382245 0.617755 0 0 0 0 0 0 0 0 
67 0.291057 0.708943 0 0 0 0 0 0 0 0 
68 0.11346 0.876047 0.00525291 0.00524033 0 0 0 0 0 0 
69 0.22675 0.77105 0.00220009 0 0 0 0 0 0 0 
70 0.14644 0.852185 0.00137505 0 0 0 0 0 0 0 
71 0.283355 0.716645 0 0 0 0 0 0 0 0 
72 0.193115 0.804715 0.0021691 0 0 0 0 0 0 0 
73 0.304707 0.695293 0 0 0 0 0 0 0 0 
74 0.203788 0.794043 0.0021691 0 0 0 0 0 0 0 
75 0.298006 0.701994 0 0 0 0 0 0 0 0 
76 0.041398 0.944204 0 0.0143982 0 0 0 0 0 0 
77 0.201635 0.7961 0.00226479 0 0 0 0 0 0 0 
78 0.207745 0.789921 0.00233342 0 0 0 0 0 0 0 
79 0.0130036 0.986989 7.63178e-06 0 0 0 0 0 0 0 
80 0.2778 0.7222 0 0 0 0 0 0 0 0 
81 0 1 0 0 0 0 0 0 0 0 
82 0.0204622 0.979538 0 0 0 0 0 0 0 0 
83 0.188389 0.811611 0 0 0 0 0 0 0 0 
84 0.129834 0.859518 0.00533015 0.0053174 0 0 0 0 0 0 
85 0.183228 0.816772 0 0 0 0 0 0 0 0 
86 0.0318857 0.968114 0 0 0 0 0 0 0 0 
87 0.131043 0.858151 0.00540971 0.00539676 0 0 0 0 0 0 
88 0.0445824 0.939912 0 0.0155058 0 0 0 0 0 0 
89 0.207745 0.789921 0.00233342 0 0 0 0 0 0 0 
90 0.207745 0.789921 0.00233342 0 0 0 0 0 0 0 
91 0.103465 0.885564 0.00549167 0.00547853 0 0 0 0 0 0 
92 0.302591 0.697409 0 0 0 0 0 0 0 0 
93 0.340889 0.659111 0 0 0 0 0 0 0 0 
94 0.340889 0.659111 0 0 0 0 0 0 0 0 
95 0.0214066 0.978593 0 0 0 0 0 0 0 0 
96 0.0573842 0.936531 0.00304582 0.00303851 0 0 0 0 0 0 
97 0.0445824 0.939912 0 0.0155058 0 0 0 0 0 0 
98 0.313158 0.686842 0 0 0 0 0 0 0 0 
99 0.21096 0.786671 0.00236934 0 0 0 0 0 0 0 
100 0.175133 0.823033 0.0018334 0 0 0 0 0 0 0 
101 0.103465 0.885564 0.00549167 0.00547853 0 0 0 0 0 0 
102 0.0439069 0.940822 0 0.0152708 0 0 0 0 0 0 
103 0.204937 0.792831 0.00223197 0 0 0 0 0 0 0 
104 0.312765 0.687235 0 0 0 0 0 0 0 0 
105 0.0112446 0.988748 7.40731e-06 0 0 0 0 0 0 0 
106 0.0124306 0.987562 7.74919e-06 0 0 0 0 0 0 0 
107 0.0111635 0.988829 7.40731e-06 0 0 0 0 0 0 0 
108 0.293558 0.706442 0 0 0 0 0 0 0 0 
109 0.205176 0.792592 0.00223197 0 0 0 0 0 0 0 
110 0.219675 0.777956 0.00236932 0 0 0 0 0 0 0 
111 0.298006 0.701994 0 0 0 0 0 0 0 0 
112 0.0930729 0.897118 0.00492265 0.00488626 0 0 0 0 0 0 
113 0.313395 0.686605 0 0 0 0 0 0 0 0 
114 0.0445824 0.939912 0 0.0155058 0 0 0 0 0 0 
115 0.0115018 0.988491 7.63178e-06 0 0 0 0 0 0 0 
116 0.103465 0.885564 0.00549167 0.00547853 0 0 0 0 0 0 
117 0.182115 0.817885 0 0 0 0 0 0 0 0 
118 0.0112709 0.988722 7.29996e-06 0 0 0 0 0 0 0 
119 0.321127 0.678873 0 0 0 0 0 0 0 0 
120 0.00702912 0.992959 1.18572e-05 0 0 0 0 0 0 0 
121 0.302591 0.697409 0 0 0 0 0 0 0 0 
122 0.0975531 0.877818 0.0194635 0.00516547 0 0 0 0 0 0 
123 0.302591 0.697409 0 0 0 0 0 0 0 0 
124 0.0445824 0.939912 0 0.0155058 0 0 0 0 0 0 
125 0.312081 0.687919 0 0 0 0 0 0 0 0 
126 0.0426155 0.942563 0 0.0148217 0 0 0 0 0 0 
127 0.298006 0.701994 0 0 0 0 0 0 0 0 
128 0.0445824 0.939912 0 0.0155058 0 0 0 0 0 0 
129 0.340889 0.659111 0 0 0 0 0 0 0 0 
130 0.340889 0.659111 0 0 0 0 0 0 0 0 
131 0.0106918 0.989301 7.09433e-06 0 0 0 0 0 0 0 
132 0 1 0 0 0 0 0 0 0 0 
133 0.302591 0.697409 0 0 0 0 0 0 0 0 
134 0.105057 0.883804 0.00557616 0.00556281 0 0 0 0 0 0 
135 6.85942e-07 0.999999 0 0 0 0 0 0 0 0 
136 0.043907 0.940822 0 0.0152708 0 0 0 0 0 0 
137 0.210941 0.786689 0.00236932 0 0 0 0 0 0 0 
138 0.0115018 0.988491 7.63178e-06 0 0 0 0 0 0 0 
139 0.0204622 0.979538 0 0 0 0 0 0 0 0 
140 0.340889 0.659111 0 0 0 0 0 0 0 0 
141 0.0590584 0.925671 0 0.0152708 0 0 0 0 0 0 
142 0.207745 0.78992 0.00233427 0 0 0 0 0 0 0 
143 0.199636 0.800364 0 0 0 0 0 0 0 0 
144 0.322988 0.677012 0 0 0 0 0 0 0 0 
145 0.203803 0.793965 0.00223197 0 0 0 0 0 0 0 
146 0.0163697 0.98363 0 0 0 0 0 0 0 0 
147 0.316539 0.683461 0 0 0 0 0 0 0 0 
148 0.123133 0.876867 0 0 0 0 0 0 0 0 
149 0.185773 0.814227 0 0 0 0 0 0 0 0 
150 0 0.999999 0 0 0 0 0 0 0 0 
151 0.325849 0.674151 0 0 0 0 0 0 0 0 
152 0.340889 0.659111 0 0 0 0 0 0 0 0 
153 0.330713 0.669287 0 0 0 0 0 0 0 0 
154 0.188389 0.811611 0 0 0 0 0 0 0 0 
155 0.325849 0.674151 0 0 0 0 0 0 0 0 
156 7.27514e-07 0.999999 0 0 0 0 0 0 0 0 
157 0.222897 0.77477 0.00233342 0 0 0 0 0 0 0 
158 0.105057 0.883804 0.00557616 0.00556281 0 0 0 0 0 0 
159 0.210941 0.786689 0.00236932 0 0 0 0 0 0 0 
160 0.302591 0.697409 0 0 0 0 0 0 0 0 
161 0.210942 0.78666 0.00239813 0 0 0 0 0 0 0 
162 0.101458 0.888049 0.00525291 0.00524033 0 0 0 0 0 0 
163 0.210941 0.786689 0.00236957 0 0 0 0 0 0 0 
164 0.210941 0.773746 0.0153124 0 0 0 0 0 0 0 
165 0.105057 0.883804 0.00557616 0.00556281 0 0 0 0 0 0 
166 0.340889 0.659111 0 0 0 0 0 0 0 0 
167 0.210941 0.786689 0.00236932 0 0 0 0 0 0 0 
168 0.0116788 0.988313 7.74919e-06 0 0 0 0 0 0 0 
169 0.0445824 0.924527 0 0.0308904 0 0 0 0 0 0 
170 0.103465 0.885564 0.00549167 0.00547853 0 0 0 0 0 0 
171 0.210942 0.786689 0.00236932 0 0 0 0 0 0 0 
172 0.0445824 0.924527 0 0.0308904 0 0 0 0 0 0 
173 0.105057 0.868419 0.00557616 0.0209474 0 0 0 0 0 0 
174 0 1 0 0 0 0 0 0 0 0 
175 0.223934 0.773733 0.00233343 0 0 0 0 0 0 0 
176 0.210941 0.786689 0.00236932 0 0 0 0 0 0 0 
177 0.265789 0.734211 0 0 0 0 0 0 0 0 
178 0.0214066 0.978593 0 0 0 0 0 0 0 0 
179 0.325849 0.674151 0 0 0 0 0 0 0 0 
180 0.302591 0.697409 0 0 0 0 0 0 0 0 
181 0.340889 0.659111 0 0 0 0 0 0 0 0 
182 0.298006 0.701994 0 0 0 0 0 0 0 0 
183 0.302591 0.697409 0 0 0 0 0 0 0 0 
184 0.289314 0.710686 0 0 0 0 0 0 0 0 
185 0.340889 0.659111 0 0 0 0 0 0 0 0 
186 0.302591 0.697409 0 0 0 0 0 0 0 0 
187 0.101921 0.887272 0.00540971 0.00539676 0 0 0 0 0 0 
188 0.302591 0.697409 0 0 0 0 0 0 0 0 
189 0.316539 0.683461 0 0 0 0 0 0 0 0 
190 0.302591 0.697409 0 0 0 0 0 0 0 0 
191 0.335724 0.664276 0 0 0 0 0 0 0 0 
192 0.210941 0.786689 0.00236932 0 0 0 0 0 0 0 
193 0.210941 0.786689 0.00236932 0 0 0 0 0 0 0 
194 0.340889 0.659111 0 0 0 0 0 0 0 0 
195 0.0493325 0.93791 0 0.0127579 0 0 0 0 0 0 
196 0.105057 0.883804 0.00557616 0.00556281 0 0 0 0 0 0 
197 0.1967 0.8033 0 0 0 0 0 0 0 0 
198 0.103465 0.885564 0.00549167 0.00547853 0 0 0 0 0 0 
199 0.200816 0.796952 0.00223197 0 0 0 0 0 0 0 
200 0.298006 0.701994 0 0 0 0 0 0 0 0 
201 0.105057 0.883804 0.00557616 0.00556281 0 0 0 0 0 0 
202 0.0445824 0.939912 0 0.0155058 0 0 0 0 0 0 
203 0.210053 0.787614 0.00233342 0 0 0 0 0 0 0 
204 0.340889 0.659111 0 0 0 0 0 0 0 0 
205 0.0214066 0.978593 0 0 0 0 0 0 0 0 
206 0 1 0 0 0 0 0 0 0 0 
207 0.0445824 0.939912 0 0.0155058 0 0 0 0 0 0 
208 0.289241 0.710759 0 0 0 0 0 0 0 0 
209 0.0445824 0.939912 0 0.0155058 0 0 0 0 0 0 
210 0.312081 0.687919 0 0 0 0 0 0 0 0 
211 0.0432516 0.941706 0 0.0150429 0 0 0 0 0 0 
212 0.353629 0.646371 0 0 0 0 0 0 0 0 
213 0.298006 0.701994 0 0 0 0 0 0 0 0 
214 0.0445824 0.939912 0 0.0155058 0 0 0 0 0 0 
215 0.062406 0.922772 0 0.0148217 0 0 0 0 0 0 
216 0 1 0 0 0 0 0 0 0 0 
217 0.0491743 0.93532 0 0.0155058 0 0 0 0 0 0 
218 0.0115018 0.988491 7.63178e-06 0 0 0 0 0 0 0 
219 0.335724 0.664276 0 0 0 0 0 0 0 0 
220 0.210941 0.786689 0.00236932 0 0 0 0 0 0 0 
221 0.0116788 0.988313 7.74919e-06 0 0 0 0 0 0 0 
222 0.226318 0.771313 0.00236932 0 0 0 0 0 0 0 
223 0.021408 0.978592 0 0 0 0 0 0 0 0 
224 0.0214066 0.978593 0 0 0 0 0 0 0 0 
225 0.0445824 0.939912 0 0.0155058 0 0 0 0 0 0 
226 0.0116788 0.988313 7.74919e-06 0 0 0 0 0 0 0 
227 0.0214066 0.978593 0 0 0 0 0 0 0 0 
