2 0 100 2 1
1 1 100 2 1
2 2 100 2 1
2 0 100 3 0.0373237
3 0 100 3 0.962676
1 1 100 3 1
1 2 100 3 0.104416
2 2 100 3 0.894738
3 2 100 3 0.000846108
2 3 100 3 0.599997
3 3 100 3 0.400003
2 4 100 3 0.000756099
3 4 100 3 0.999244
3 5 100 3 1
1 0 100 4 1
1 1 100 4 1
1 2 100 4 0.0579896
2 2 100 4 0.94201
2 3 100 4 0.571429
3 3 100 4 0.428571
3 4 100 4 0.5
4 4 100 4 0.5
4 5 100 4 1
2 6 100 4 1.82004e-05
3 6 100 4 0.322402
4 6 100 4 0.67758
2 0 100 5 0.014356
3 0 100 5 0.577414
4 0 100 5 0.00410109
5 0 100 5 0.404128
1 1 100 5 1
1 2 100 5 0.136536
2 2 100 5 0.863464
2 3 100 5 0.634059
3 3 100 5 0.365941
3 4 100 5 0.741237
4 4 100 5 0.258763
3 5 100 5 0.141076
4 5 100 5 0.75166
5 5 100 5 0.107264
4 6 100 5 0.173339
5 6 100 5 0.826661
3 7 100 5 2.79373e-06
4 7 100 5 0.247276
5 7 100 5 0.752722
3 8 100 5 1.14326e-06
4 8 100 5 1.52166e-06
5 8 100 5 0.999997
5 9 100 5 1
2 0 100 6 4.73809e-05
3 0 100 6 0.00024759
4 0 100 6 0.972795
5 0 100 6 0.000464018
6 0 100 6 0.026446
1 1 100 6 1
1 2 100 6 0.0715802
2 2 100 6 0.870394
4 2 100 6 0.0580263
1 3 100 6 0.0289166
2 3 100 6 0.549418
3 3 100 6 0.392749
5 3 100 6 0.0289168
2 4 100 6 0.03529
3 4 100 6 0.682413
4 4 100 6 0.247154
5 4 100 6 2.08033e-06
6 4 100 6 0.0351414
2 5 100 6 0.0905365
3 5 100 6 0.0489377
4 5 100 6 0.63419
5 5 100 6 0.226336
3 6 100 6 0.0342808
4 6 100 6 0.353094
5 6 100 6 0.515082
6 6 100 6 0.0975429
3 7 100 6 0.0725349
4 7 100 6 0.0737875
5 7 100 6 0.442704
6 7 100 6 0.410974
3 8 100 6 0.00445649
4 8 100 6 0.00105557
5 8 100 6 0.151355
6 8 100 6 0.843133
4 9 100 6 0.334961
5 9 100 6 1.11989e-05
6 9 100 6 0.665028
3 10 100 6 4.38883e-06
4 10 100 6 4.33743e-05
5 10 100 6 0.0164366
6 10 100 6 0.983516
4 11 100 6 1.14097e-06
5 11 100 6 0.999999
6 12 100 6 1
1 0 100 7 0.003974
2 0 100 7 0.00577243
3 0 100 7 0.00421171
4 0 100 7 0.0204797
5 0 100 7 0.0644389
6 0 100 7 0.00194027
7 0 100 7 0.899183
1 1 100 7 0.941508
6 1 100 7 0.0584916
1 2 100 7 0.468072
2 2 100 7 0.483483
7 2 100 7 0.0484453
1 3 100 7 0.134502
2 3 100 7 0.421193
3 3 100 7 0.444305
1 4 100 7 2.77242e-05
2 4 100 7 0.463273
3 4 100 7 0.304605
4 4 100 7 0.232095
2 5 100 7 0.0398813
3 5 100 7 0.441642
4 5 100 7 0.358894
5 5 100 7 0.159583
3 6 100 7 0.239411
4 6 100 7 0.0845209
5 6 100 7 0.422662
6 6 100 7 0.253405
3 7 100 7 0.00336508
4 7 100 7 0.442408
5 7 100 7 0.221599
6 7 100 7 0.221851
7 7 100 7 0.110776
4 8 100 7 0.0736235
5 8 100 7 0.142015
6 8 100 7 0.426924
7 8 100 7 0.357438
5 9 100 7 0.557504
6 9 100 7 0.0557725
7 9 100 7 0.386723
4 10 100 7 2.95776e-07
5 10 100 7 0.0894701
6 10 100 7 0.821799
7 10 100 7 0.0887306
5 11 100 7 2.10702e-07
6 11 100 7 0.168237
7 11 100 7 0.831763
7 12 100 7 1
2 0 100 8 0.030411
4 0 100 8 0.0234553
5 0 100 8 0.0279672
6 0 100 8 0.0506594
7 0 100 8 0.0160102
8 0 100 8 0.851497
1 1 100 8 1
1 2 100 8 0.106183
2 2 100 8 0.893817
1 3 100 8 0.0108199
2 3 100 8 0.371344
3 3 100 8 0.617836
2 4 100 8 0.197641
3 4 100 8 0.308258
4 4 100 8 0.494098
5 4 100 8 3.40297e-06
3 5 100 8 0.349649
4 5 100 8 0.325174
5 5 100 8 0.325177
3 6 100 8 8.64983e-06
4 6 100 8 0.384667
5 6 100 8 0.384523
6 6 100 8 0.230801
5 7 100 8 0.363712
6 7 100 8 0.363591
7 7 100 8 0.272696
5 8 100 8 0.0928552
6 8 100 8 0.35003
7 8 100 8 0.371327
8 8 100 8 0.185788
6 9 100 8 0.308585
7 9 100 8 0.138417
8 9 100 8 0.552998
4 10 100 8 9.86057e-05
5 10 100 8 0.000101889
6 10 100 8 5.09581e-05
7 10 100 8 0.659247
8 10 100 8 0.340502
4 11 100 8 0.000104118
5 11 100 8 2.73393e-06
6 11 100 8 0.00134938
7 11 100 8 0.499656
8 11 100 8 0.498888
2 12 100 8 0.000122244
5 12 100 8 7.21326e-05
6 12 100 8 0.000166998
7 12 100 8 0.00288263
8 12 100 8 0.996756
7 13 100 8 6.09998e-07
8 13 100 8 0.999999
1 0 100 9 0.000309148
2 0 100 9 0.00222615
5 0 100 9 0.00229304
6 0 100 9 0.00266504
7 0 100 9 0.00168956
8 0 100 9 0.990817
1 1 100 9 1
1 2 100 9 0.325106
2 2 100 9 0.674894
1 3 100 9 0.00753327
2 3 100 9 0.205585
3 3 100 9 0.786882
2 4 100 9 0.324014
3 4 100 9 0.189952
4 4 100 9 0.486034
3 5 100 9 0.388211
4 5 100 9 0.408046
5 5 100 9 0.203743
3 6 100 9 0.0237343
4 6 100 9 0.24408
5 6 100 9 0.732186
4 7 100 9 0.166646
5 7 100 9 0.333479
6 7 100 9 0.499875
6 8 100 9 0.499991
7 8 100 9 0.500009
5 9 100 9 0.0546697
7 9 100 9 0.253697
8 9 100 9 0.691633
5 10 100 9 0.115232
7 10 100 9 0.291291
8 10 100 9 0.148369
9 10 100 9 0.445108
4 11 100 9 0.00587432
5 11 100 9 2.48838e-06
6 11 100 9 0.307706
8 11 100 9 0.374081
9 11 100 9 0.312335
2 12 100 9 6.99736e-06
5 12 100 9 3.18957e-05
6 12 100 9 6.14084e-05
7 12 100 9 0.0497846
8 12 100 9 0.101272
9 12 100 9 0.848844
7 13 100 9 0.484892
8 13 100 9 3.17098e-06
9 13 100 9 0.515105
8 14 100 9 1
9 15 100 9 1
1 0 100 10 2.86215e-05
2 0 100 10 8.85336e-05
3 0 100 10 0.000120375
4 0 100 10 0.000123549
5 0 100 10 0.000345654
6 0 100 10 0.000268106
7 0 100 10 0.489762
8 0 100 10 0.00531743
9 0 100 10 0.487682
10 0 100 10 0.0162634
1 1 100 10 1
1 2 100 10 0.221718
2 2 100 10 0.778282
1 3 100 10 0.0937346
2 3 100 10 0.546273
3 3 100 10 0.359993
1 4 100 10 5.10075e-05
2 4 100 10 0.315297
3 4 100 10 0.684652
3 5 100 10 0.220472
4 5 100 10 0.779526
5 5 100 10 2.87521e-06
3 6 100 10 0.168188
4 6 100 10 0.138634
5 6 100 10 0.693169
8 6 100 10 2.3698e-06
10 6 100 10 6.63534e-06
3 7 100 10 0.00990355
4 7 100 10 0.220031
5 7 100 10 0.219995
6 7 100 10 0.550071
4 8 100 10 0.49129
6 8 100 10 0.0174197
7 8 100 10 0.49129
5 9 100 10 0.22315
6 9 100 10 0.218772
7 9 100 10 0.446239
8 9 100 10 0.111697
10 9 100 10 0.000142025
4 10 100 10 2.45121e-06
5 10 100 10 0.14035
6 10 100 10 0.143638
7 10 100 10 0.143742
8 10 100 10 0.41529
9 10 100 10 0.143742
10 10 100 10 0.0132356
4 11 100 10 7.96956e-06
5 11 100 10 0.00348504
6 11 100 10 0.166735
7 11 100 10 0.166537
8 11 100 10 0.348415
9 11 100 10 0.000877565
10 11 100 10 0.313943
4 12 100 10 2.68298e-05
5 12 100 10 2.60483e-05
6 12 100 10 0.165355
7 12 100 10 0.167043
8 12 100 10 0.294354
9 12 100 10 0.373194
2 13 100 10 3.3251e-06
3 13 100 10 3.83864e-06
4 13 100 10 4.19569e-06
5 13 100 10 6.13954e-06
6 13 100 10 3.57726e-06
7 13 100 10 0.251319
8 13 100 10 0.250524
9 13 100 10 0.498128
10 13 100 10 8.55217e-06
3 14 100 10 6.91535e-06
4 14 100 10 2.18889e-05
5 14 100 10 5.42705e-05
8 14 100 10 0.175816
9 14 100 10 0.250366
10 14 100 10 0.573735
6 15 100 10 3.54338e-05
9 15 100 10 0.993981
10 15 100 10 0.00598361
6 16 100 10 3.63111e-05
10 16 100 10 0.999964
1 0 100 11 4.84167e-05
2 0 100 11 4.30626e-05
3 0 100 11 0.00010062
4 0 100 11 0.000330716
5 0 100 11 0.00022253
6 0 100 11 0.237969
7 0 100 11 0.752174
8 0 100 11 0.00195917
9 0 100 11 0.000798242
11 0 100 11 0.00635419
1 1 100 11 0.999868
2 1 100 11 3.72337e-06
5 1 100 11 0.000127832
1 2 100 11 0.666695
2 2 100 11 0.333305
1 3 100 11 0.364949
2 3 100 11 0.508685
3 3 100 11 0.126287
8 3 100 11 7.89731e-05
1 4 100 11 0.00526009
2 4 100 11 0.328459
3 4 100 11 0.666281
2 5 100 11 0.228105
3 5 100 11 0.201643
4 5 100 11 0.570253
3 6 100 11 0.194093
5 6 100 11 0.805907
3 7 100 11 0.00599425
4 7 100 11 0.426911
6 7 100 11 0.567095
3 8 100 11 0.166683
4 8 100 11 0.166683
5 8 100 11 7.71703e-05
6 8 100 11 0.33312
7 8 100 11 0.333414
8 8 100 11 1.42145e-05
11 8 100 11 9.07551e-06
2 9 100 11 5.79337e-06
4 9 100 11 0.127385
5 9 100 11 0.363404
6 9 100 11 1.08632e-05
7 9 100 11 0.127422
8 9 100 11 0.381766
11 9 100 11 6.90874e-06
5 10 100 11 0.159153
6 10 100 11 0.161345
7 10 100 11 0.155672
8 10 100 11 0.208924
9 10 100 11 0.31489
10 10 100 11 8.80039e-06
11 10 100 11 8.09452e-06
5 11 100 11 0.0264523
6 11 100 11 0.38949
9 11 100 11 0.389324
10 11 100 11 0.194734
6 12 100 11 0.179867
7 12 100 11 0.159539
8 12 100 11 0.120994
10 12 100 11 0.359733
11 12 100 11 0.179867
3 13 100 11 1.7777e-06
4 13 100 11 1.72967e-05
6 13 100 11 6.44183e-05
7 13 100 11 0.508153
8 13 100 11 0.0003788
9 13 100 11 0.164826
10 13 100 11 0.164882
11 13 100 11 0.161677
3 14 100 11 2.00829e-06
5 14 100 11 1.9926e-06
7 14 100 11 0.0193113
8 14 100 11 0.39268
10 14 100 11 0.196394
11 14 100 11 0.391611
4 15 100 11 4.45652e-06
6 15 100 11 0.00069515
7 15 100 11 1.27498e-05
8 15 100 11 0.495151
9 15 100 11 0.399539
11 15 100 11 0.104598
4 16 100 11 9.95205e-06
6 16 100 11 2.07506e-05
9 16 100 11 0.500019
10 16 100 11 0.499951
10 17 100 11 0.500091
11 17 100 11 0.499909
11 18 100 11 1
1 0 100 12 0.0408425
3 0 100 12 0.0100539
4 0 100 12 0.029487
6 0 100 12 0.0545192
8 0 100 12 0.0179005
9 0 100 12 0.0712417
10 0 100 12 0.167044
12 0 100 12 0.608912
1 1 100 12 1
1 2 100 12 0.783012
2 2 100 12 0.216971
3 2 100 12 2.43359e-06
12 2 100 12 1.53034e-05
1 3 100 12 0.0267669
2 3 100 12 0.648822
3 3 100 12 0.324411
1 4 100 12 0.000102475
2 4 100 12 0.669251
3 4 100 12 0.163348
4 4 100 12 0.167299
3 5 100 12 0.825147
5 5 100 12 0.174853
3 6 100 12 0.0921532
4 6 100 12 0.605345
6 6 100 12 0.302502
4 7 100 12 0.569465
5 7 100 12 0.287023
7 7 100 12 0.143512
4 8 100 12 0.0106507
6 8 100 12 0.649013
8 8 100 12 0.340336
5 9 100 12 0.607196
6 9 100 12 0.0174574
7 9 100 12 0.187674
9 9 100 12 0.187674
5 10 100 12 0.126193
6 10 100 12 0.378747
7 10 100 12 0.16504
8 10 100 12 0.16504
10 10 100 12 0.16498
6 11 100 12 0.460207
9 11 100 12 0.269896
11 11 100 12 0.269896
7 12 100 12 0.386149
8 12 100 12 0.204629
10 12 100 12 0.204593
12 12 100 12 0.204629
7 13 100 12 0.413712
8 13 100 12 0.194721
9 13 100 12 0.195768
11 13 100 12 0.1958
6 14 100 12 2.52525e-06
8 14 100 12 0.750435
9 14 100 12 0.00194216
10 14 100 12 0.000220787
11 14 100 12 3.40674e-07
12 14 100 12 0.247399
7 15 100 12 4.12506e-06
9 15 100 12 0.799801
10 15 100 12 0.200195
6 16 100 12 1.4956e-05
8 16 100 12 2.49336e-05
10 16 100 12 0.999953
11 16 100 12 6.75017e-06
3 17 100 12 1.08734e-05
11 17 100 12 0.999989
4 18 100 12 2.28183e-05
11 18 100 12 0.200107
12 18 100 12 0.79987
9 19 100 12 0.911047
10 19 100 12 0.0803353
11 19 100 12 0.00861807
12 20 100 12 1
1 0 100 13 0.00504508
6 0 100 13 0.289278
8 0 100 13 0.0207592
11 0 100 13 0.0943369
13 0 100 13 0.590581
1 1 100 13 1
1 2 100 13 0.999956
13 2 100 13 4.40428e-05
1 3 100 13 0.0414486
2 3 100 13 0.958551
2 4 100 13 0.666667
3 4 100 13 0.333333
3 5 100 13 0.650595
4 5 100 13 0.349405
3 6 100 13 0.115086
4 6 100 13 0.0508962
5 6 100 13 0.834018
4 7 100 13 0.501464
6 7 100 13 0.498536
4 8 100 13 0.484264
7 8 100 13 0.515736
5 9 100 13 1
6 10 100 13 0.656785
8 10 100 13 0.343215
6 11 100 13 0.0801884
7 11 100 13 0.919812
7 12 100 13 0.5
8 12 100 13 0.5
8 13 100 13 0.333333
9 13 100 13 0.666667
10 14 100 13 1
9 15 100 13 0.333299
10 15 100 13 0.333865
11 15 100 13 0.332836
7 16 100 13 5.30285e-06
9 16 100 13 0.00194776
10 16 100 13 0.49902
11 16 100 13 2.85898e-06
12 16 100 13 0.499024
6 17 100 13 1.3714e-05
10 17 100 13 9.98059e-07
11 17 100 13 0.495161
13 17 100 13 0.504824
11 18 100 13 0.499741
12 18 100 13 0.500259
6 19 100 13 0.000521666
11 19 100 13 1.92074e-06
12 19 100 13 1.95572e-05
13 19 100 13 0.999457
12 20 100 13 1
13 21 100 13 1
2 0 100 14 0.00010245
5 0 100 14 0.993383
7 0 100 14 0.000642931
9 0 100 14 0.000134487
10 0 100 14 0.00129263
12 0 100 14 0.000642931
14 0 100 14 0.00380164
1 1 100 14 1
2 2 100 14 1
2 3 100 14 0.5
3 3 100 14 0.5
3 4 100 14 1
4 5 100 14 1
5 6 100 14 0.5
6 6 100 14 0.5
7 7 100 14 1
6 8 100 14 0.5
8 8 100 14 0.5
7 9 100 14 0.500031
9 9 100 14 0.499969
5 10 100 14 4.49588e-05
8 10 100 14 0.539281
10 10 100 14 0.460674
5 11 100 14 0.000119894
9 11 100 14 0.880458
10 11 100 14 0.119423
10 12 100 14 1
10 13 100 14 1
10 14 100 14 1.59774e-05
11 14 100 14 0.999984
11 15 100 14 0.5
12 15 100 14 0.5
7 16 100 14 1.19055e-05
9 16 100 14 2.1303e-06
10 16 100 14 1.82769e-06
12 16 100 14 0.999984
13 17 100 14 1
7 18 100 14 1.18062e-05
9 18 100 14 6.03776e-06
10 18 100 14 1.91292e-06
14 18 100 14 0.99998
5 19 100 14 0.11513
9 19 100 14 2.09193e-05
10 19 100 14 0.797572
11 19 100 14 0.000445077
14 19 100 14 0.0868315
1 0 100 15 8.3073e-05
4 0 100 15 0.000109797
7 0 100 15 0.000211014
8 0 100 15 0.00218758
9 0 100 15 0.000149001
10 0 100 15 0.000434624
11 0 100 15 0.000249895
12 0 100 15 0.000109797
13 0 100 15 0.000293019
14 0 100 15 0.993781
15 0 100 15 0.00239106
1 1 100 15 1
1 2 100 15 0.999982
2 2 100 15 1.79455e-05
1 3 100 15 0.0155404
2 3 100 15 0.98446
2 4 100 15 0.333333
3 4 100 15 0.666667
3 5 100 15 0.333346
4 5 100 15 0.666654
5 6 100 15 1
4 7 100 15 0.5
6 7 100 15 0.5
5 8 100 15 0.5
6 8 100 15 0.5
6 9 100 15 0.463894
7 9 100 15 0.536068
14 9 100 15 3.71322e-05
6 10 100 15 0.991741
7 10 100 15 0.00825904
7 11 100 15 0.500028
8 11 100 15 0.499972
8 12 100 15 0.847651
9 12 100 15 0.152349
8 13 100 15 3.28952e-05
9 13 100 15 0.999967
7 14 100 15 0.5
10 14 100 15 0.5
8 15 100 15 0.499482
11 15 100 15 0.500518
9 16 100 15 0.333333
10 16 100 15 0.333333
12 16 100 15 0.333333
7 17 100 15 4.06329e-06
10 17 100 15 0.337718
11 17 100 15 0.324957
13 17 100 15 0.337295
14 17 100 15 2.55585e-05
8 18 100 15 1.39152e-06
10 18 100 15 2.57566e-05
11 18 100 15 0.000832941
12 18 100 15 2.24891e-06
14 18 100 15 0.999138
2 19 100 15 3.77059e-05
10 19 100 15 1.07068e-05
11 19 100 15 0.000917964
15 19 100 15 0.999034
4 20 100 15 1.10838e-06
7 20 100 15 4.89443e-06
8 20 100 15 3.03351e-06
11 20 100 15 0.996824
12 20 100 15 0.00316173
14 20 100 15 5.35114e-06
4 21 100 15 2.61698e-06
8 21 100 15 7.17052e-06
11 21 100 15 1.81972e-06
12 21 100 15 0.999988
6 22 100 15 2.57925e-06
7 22 100 15 3.2974e-06
9 22 100 15 3.95306e-06
11 22 100 15 8.83808e-05
13 22 100 15 0.999753
14 22 100 15 0.000148475
7 23 100 15 6.38394e-06
8 23 100 15 0.000221799
10 23 100 15 9.79086e-05
11 23 100 15 0.000714347
13 23 100 15 4.12556e-06
14 23 100 15 0.00657183
15 23 100 15 0.992384
6 24 100 15 1.44918e-06
14 24 100 15 0.999999
8 25 100 15 1.5703e-06
15 25 100 15 0.999998
1 0 100 16 0.00574305
3 0 100 16 0.00245629
4 0 100 16 0.00854959
5 0 100 16 0.00854959
7 0 100 16 0.00854959
9 0 100 16 0.0212256
10 0 100 16 0.00489236
11 0 100 16 0.00854959
12 0 100 16 0.512759
13 0 100 16 0.00829873
14 0 100 16 0.0228684
16 0 100 16 0.387558
1 1 100 16 1
1 2 100 16 0.695856
2 2 100 16 0.304144
1 3 100 16 0.016077
2 3 100 16 0.655949
3 3 100 16 0.327974
2 4 100 16 0.402989
3 4 100 16 0.395588
4 4 100 16 0.201421
5 4 100 16 2.42845e-06
3 5 100 16 0.670688
4 5 100 16 0.329312
4 6 100 16 0.500081
5 6 100 16 0.499919
4 7 100 16 0.249983
5 7 100 16 0.500034
6 7 100 16 0.249983
5 8 100 16 0.255959
6 8 100 16 0.488083
7 8 100 16 0.255959
6 9 100 16 0.511419
7 9 100 16 0.244247
8 9 100 16 0.244334
7 10 100 16 0.500054
8 10 100 16 0.250027
9 10 100 16 0.249919
7 11 100 16 0.250007
8 11 100 16 0.250007
9 11 100 16 0.24998
10 11 100 16 0.250007
8 12 100 16 0.400028
9 12 100 16 0.199945
10 12 100 16 0.200014
11 12 100 16 0.200014
10 13 100 16 0.335701
11 13 100 16 0.335577
12 13 100 16 0.328723
9 14 100 16 0.500043
11 14 100 16 0.250022
13 14 100 16 0.249935
10 15 100 16 0.40006
11 15 100 16 2.41104e-06
12 15 100 16 0.399973
14 15 100 16 0.199964
11 16 100 16 0.666607
12 16 100 16 9.0074e-05
15 16 100 16 0.333303
12 17 100 16 0.401022
13 17 100 16 0.401063
16 17 100 16 0.197914
4 18 100 16 1.38361e-05
5 18 100 16 3.73077e-05
7 18 100 16 5.26238e-06
10 18 100 16 8.54326e-07
11 18 100 16 1.69829e-05
12 18 100 16 0.00313016
13 18 100 16 0.334217
14 18 100 16 0.662578
8 19 100 16 3.95775e-06
13 19 100 16 0.249947
14 19 100 16 0.249054
15 19 100 16 0.500995
3 20 100 16 7.17505e-06
9 20 100 16 5.26653e-06
14 20 100 16 0.197067
15 20 100 16 0.267934
16 20 100 16 0.534986
3 21 100 16 3.8665e-06
11 21 100 16 6.27584e-06
15 21 100 16 0.49989
16 21 100 16 0.5001
14 22 100 16 0.958481
16 22 100 16 0.041519
11 23 100 16 1.56026e-06
14 23 100 16 0.000241909
15 23 100 16 0.00017729
16 23 100 16 0.999579
1 0 100 17 2.96814e-05
3 0 100 17 6.67422e-05
4 0 100 17 0.000167721
5 0 100 17 0.000136992
6 0 100 17 0.000167721
8 0 100 17 0.000100948
10 0 100 17 0.000224954
11 0 100 17 0.000100948
12 0 100 17 0.000121672
14 0 100 17 0.0175702
15 0 100 17 0.00118947
16 0 100 17 0.889286
17 0 100 17 0.0908367
1 1 100 17 1
1 2 100 17 0.229839
2 2 100 17 0.770129
17 2 100 17 3.13706e-05
1 3 100 17 0.130464
2 3 100 17 0.434768
3 3 100 17 0.434768
2 4 100 17 0.336217
3 4 100 17 0.327603
4 4 100 17 0.336176
17 4 100 17 3.4666e-06
3 5 100 17 0.505782
5 5 100 17 0.494218
3 6 100 17 0.00228849
4 6 100 17 0.997513
6 6 100 17 0.000199012
4 7 100 17 0.333505
5 7 100 17 0.332917
6 7 100 17 0.333575
17 7 100 17 3.45742e-06
5 8 100 17 0.500573
7 8 100 17 0.499427
6 9 100 17 0.493539
8 9 100 17 0.506456
17 9 100 17 5.21858e-06
6 10 100 17 0.506307
9 10 100 17 0.493693
7 11 100 17 1
8 12 100 17 0.666667
10 12 100 17 0.333333
9 13 100 17 0.666692
11 13 100 17 0.333304
17 13 100 17 3.9305e-06
10 14 100 17 0.666659
12 14 100 17 0.333326
16 14 100 17 1.55746e-05
11 15 100 17 1
11 16 100 17 0.333333
12 16 100 17 0.333333
13 16 100 17 0.333333
12 17 100 17 0.543863
14 17 100 17 0.456091
16 17 100 17 4.58831e-05
13 18 100 17 0.880762
14 18 100 17 0.119217
16 18 100 17 2.05467e-05
2 19 100 17 1.77461e-05
10 19 100 17 9.11271e-05
13 19 100 17 0.499493
14 19 100 17 0.500398
3 20 100 17 2.18647e-05
12 20 100 17 1.70395e-06
13 20 100 17 5.35365e-06
14 20 100 17 0.000475958
15 20 100 17 0.994389
16 20 100 17 9.99293e-05
17 20 100 17 0.00500654
4 21 100 17 1.94264e-05
6 21 100 17 2.93839e-05
8 21 100 17 7.06966e-06
10 21 100 17 9.39996e-07
11 21 100 17 2.90059e-05
14 21 100 17 0.483861
15 21 100 17 0.0763106
16 21 100 17 0.000901973
17 21 100 17 0.438841
15 22 100 17 0.500401
16 22 100 17 0.499599
3 23 100 17 2.7448e-05
8 23 100 17 2.50239e-06
11 23 100 17 2.01158e-05
12 23 100 17 2.86825e-06
17 23 100 17 0.999947
16 24 100 17 1
16 25 100 17 2.35989e-06
17 25 100 17 0.999998
6 0 100 18 4.69606e-05
9 0 100 18 0.981876
10 0 100 18 0.00158668
11 0 100 18 0.000198994
13 0 100 18 0.000204357
14 0 100 18 0.00958847
15 0 100 18 0.000158281
16 0 100 18 0.000198802
18 0 100 18 0.00614136
1 1 100 18 1
2 2 100 18 1
3 3 100 18 1
4 4 100 18 1
5 5 100 18 1
6 7 100 18 1
7 8 100 18 1
8 9 100 18 0.998548
9 9 100 18 0.00145195
10 10 100 18 1
11 11 100 18 1
12 12 100 18 1
13 13 100 18 1
9 14 100 18 6.68138e-05
14 14 100 18 0.999933
15 15 100 18 1
16 16 100 18 1
17 17 100 18 1
18 18 100 18 1
5 0 100 19 0.178672
6 0 100 19 0.0894644
7 0 100 19 0.0893643
9 0 100 19 0.000145114
10 0 100 19 0.178662
11 0 100 19 0.0143007
12 0 100 19 0.0893644
14 0 100 19 1.46627e-05
15 0 100 19 0.00510204
16 0 100 19 0.178559
17 0 100 19 0.175969
19 0 100 19 0.000382537
1 1 100 19 1
2 2 100 19 1
3 3 100 19 1
4 4 100 19 0.999996
16 4 100 19 4.04883e-06
5 5 100 19 0.333474
6 5 100 19 0.666526
7 6 100 19 0.666634
8 6 100 19 0.333349
17 6 100 19 1.61594e-05
8 7 100 19 0.666667
9 7 100 19 0.333333
9 8 100 19 0.666483
10 8 100 19 0.333514
19 8 100 19 3.3886e-06
6 9 100 19 2.14427e-05
11 9 100 19 0.739565
13 9 100 19 0.260414
12 10 100 19 0.666628
14 10 100 19 0.333351
17 10 100 19 2.03137e-05
7 11 100 19 4.66274e-05
12 11 100 19 5.56521e-05
13 11 100 19 0.67121
15 11 100 19 0.318367
17 11 100 19 0.0103206
14 12 100 19 0.666648
18 12 100 19 0.333352
5 13 100 19 0.000260989
10 13 100 19 0.000317622
15 13 100 19 0.498419
17 13 100 19 1.54787e-05
19 13 100 19 0.500987
15 14 100 19 0.500023
16 14 100 19 0.499977
16 15 100 19 0.000935366
17 15 100 19 0.499503
18 15 100 19 0.499562
18 16 100 19 0.5
19 16 100 19 0.5
9 17 100 19 1.01971e-05
19 17 100 19 0.99999
6 0 100 20 0.435598
7 0 100 20 0.0627622
8 0 100 20 0.062415
10 0 100 20 0.000407318
11 0 100 20 0.311796
12 0 100 20 0.000304649
13 0 100 20 0.0624124
15 0 100 20 4.02405e-05
16 0 100 20 0.00113952
17 0 100 20 1.86341e-05
18 0 100 20 0.0623669
20 0 100 20 0.000739213
1 1 100 20 1
2 2 100 20 1
2 3 100 20 0.285714
3 3 100 20 0.714286
3 4 100 20 0.324049
4 4 100 20 0.675951
4 5 100 20 0.332947
5 5 100 20 0.665894
6 5 100 20 0.0011594
5 6 100 20 0.333149
6 6 100 20 0.00104245
7 6 100 20 0.499234
9 6 100 20 0.166574
4 7 100 20 0.121321
7 7 100 20 0.292722
8 7 100 20 0.439458
10 7 100 20 0.1465
5 8 100 20 0.14284
6 8 100 20 0.000158134
8 8 100 20 0.285643
9 8 100 20 0.428519
11 8 100 20 0.14284
7 9 100 20 0.142754
9 9 100 20 0.28593
10 9 100 20 0.428351
12 9 100 20 0.141981
17 9 100 20 0.000983424
8 10 100 20 0.142945
10 10 100 20 0.285582
12 10 100 20 0.428497
13 10 100 20 3.50048e-06
15 10 100 20 0.142484
20 10 100 20 0.000488561
6 11 100 20 0.000103962
8 11 100 20 4.0243e-06
9 11 100 20 0.166711
12 11 100 20 0.333096
13 11 100 20 0.500078
18 11 100 20 6.95176e-06
10 12 100 20 0.142838
13 12 100 20 0.285697
14 12 100 20 0.428599
16 12 100 20 0.142866
11 13 100 20 0.111116
12 13 100 20 0.000764357
14 13 100 20 0.333348
15 13 100 20 0.333305
17 13 100 20 0.110351
19 13 100 20 0.111116
6 14 100 20 3.58755e-05
11 14 100 20 4.46128e-05
12 14 100 20 0.166979
15 14 100 20 0.334485
16 14 100 20 0.331922
18 14 100 20 0.000125815
20 14 100 20 0.166408
6 15 100 20 3.43606e-05
11 15 100 20 4.24881e-05
13 15 100 20 0.200206
16 15 100 20 0.399269
17 15 100 20 0.400448
14 16 100 20 0.166676
16 16 100 20 0.166676
17 16 100 20 0.333336
18 16 100 20 0.333311
15 17 100 20 0.166674
17 17 100 20 0.166674
18 17 100 20 0.333305
19 17 100 20 0.333347
6 18 100 20 9.06039e-06
18 18 100 20 0.200295
19 18 100 20 0.400641
20 18 100 20 0.399054
16 19 100 20 0.250248
19 19 100 20 0.250248
20 19 100 20 0.499505
17 20 100 20 0.5
20 20 100 20 0.5
18 21 100 20 1
19 22 100 20 1
13 23 100 20 2.914e-06
15 23 100 20 0.000187222
18 23 100 20 2.46798e-05
20 23 100 20 0.999785
9 0 100 21 5.07754e-06
12 0 100 21 0.197944
13 0 100 21 0.205146
16 0 100 21 0.128388
17 0 100 21 0.174409
18 0 100 21 0.205146
21 0 100 21 0.0889618
1 1 100 21 1
12 2 100 21 0.992749
17 2 100 21 0.00725126
2 3 100 21 0.499998
3 3 100 21 0.500002
4 4 100 21 1
5 5 100 21 1
6 6 100 21 1
7 7 100 21 1
8 8 100 21 1
9 9 100 21 1
10 10 100 21 0.333334
14 10 100 21 0.333334
19 10 100 21 0.333332
12 11 100 21 0.189819
16 11 100 21 0.000120999
17 11 100 21 0.81006
11 12 100 21 0.333333
15 12 100 21 0.333333
20 12 100 21 0.333333
16 13 100 21 0.397816
21 13 100 21 0.602184
6 0 100 23 0.299282
7 0 100 23 0.000185945
8 0 100 23 2.48489e-05
10 0 100 23 0.298166
12 0 100 23 5.84435e-06
13 0 100 23 2.48005e-05
16 0 100 23 0.00120711
17 0 100 23 1.96984e-05
18 0 100 23 9.8852e-05
19 0 100 23 0.29928
20 0 100 23 0.000185945
21 0 100 23 2.48489e-05
23 0 100 23 0.101494
1 1 100 23 1
1 2 100 23 1
2 3 100 23 1
3 4 100 23 1
4 5 100 23 1
5 6 100 23 1
7 7 100 23 1
8 8 100 23 1
9 9 100 23 1
11 10 100 23 1
12 11 100 23 1
13 12 100 23 1
14 13 100 23 1
15 14 100 23 1
6 15 100 23 3.27837e-05
16 15 100 23 0.999927
19 15 100 23 4.067e-05
17 16 100 23 1
18 17 100 23 1
20 18 100 23 1
21 19 100 23 1
22 20 100 23 1
10 21 100 23 0.0056605
23 21 100 23 0.99434
7 0 100 26 2.00696e-05
8 0 100 26 8.49636e-05
12 0 100 26 2.00696e-05
13 0 100 26 8.49636e-05
16 0 100 26 0.00409833
17 0 100 26 6.76444e-05
18 0 100 26 0.000874696
19 0 100 26 0.494867
20 0 100 26 0.000618787
21 0 100 26 0.000874696
22 0 100 26 0.494871
23 0 100 26 0.000618787
24 0 100 26 8.50635e-05
26 0 100 26 0.00281353
1 1 100 26 1
1 2 100 26 1
2 3 100 26 1
3 4 100 26 1
4 5 100 26 1
5 6 100 26 1
6 7 100 26 1
7 8 100 26 1
8 9 100 26 1
9 10 100 26 1
10 11 100 26 1
11 12 100 26 1
12 13 100 26 1
13 14 100 26 1
14 15 100 26 1
15 16 100 26 1
16 17 100 26 0.999942
19 17 100 26 3.24478e-05
22 17 100 26 2.52362e-05
17 18 100 26 1
18 19 100 26 1
20 20 100 26 1
21 21 100 26 1
23 22 100 26 1
24 23 100 26 1
25 24 100 26 1
26 25 100 26 1
